the -0.62353 0.56366 0.60461 0.555 -0.37053 -0.26858 -0.15032 -0.28993 -0.17367 0.5219 
of -0.59973 0.47932 0.77509 0.43851 -0.48905 -0.059955 -0.27142 -0.28277 -0.24812 0.2629 
and -0.50823 0.46024 0.80261 0.33607 -0.43939 -0.3047 -0.24047 -0.27384 -0.35108 0.41105 
in -0.61426 0.4565 0.52203 0.50809 -0.55575 -0.17559 -0.42358 -0.20626 -0.27658 0.389 
to -0.36978 0.55435 0.7754 0.45479 -0.43026 -0.17299 -0.42108 -0.30056 -0.34595 0.31955 
a -0.56358 0.55114 0.59419 0.56291 -0.45594 -0.21427 -0.27065 -0.20537 -0.22557 0.36011 
one -0.51303 0.5787 0.5368 0.56009 -0.70252 -0.19447 -0.40483 -0.17658 -0.17844 0.20917 
is -0.53312 0.56165 0.76401 0.55606 -0.461 -0.22768 -0.1315 -0.1143 -0.25456 0.24679 
as -0.60556 0.5007 0.89768 0.30063 -0.37646 -0.25711 -0.16323 -0.24601 -0.3765 0.24716 
autism -0.38984 0.51248 0.88213 0.38179 -0.40912 -0.22888 -0.10177 -0.18716 -0.47203 0.23998 
that -0.53848 0.51206 0.80097 0.36401 -0.39339 0.0090549 -0.36048 -0.24228 -0.29759 0.37108 
zero -0.5509 0.56813 0.48865 0.65969 -0.68579 -0.37871 -0.30617 -0.10532 -0.39724 0.042147 
with -0.4153 0.53761 0.77869 0.53428 -0.52267 -0.16532 -0.36476 -0.20125 -0.26427 0.14948 
or -0.56283 0.46442 0.9025 0.3601 -0.47091 -0.18499 -0.29526 -0.18797 -0.22222 0.18486 
for -0.59413 0.53801 0.71652 0.49443 -0.41199 -0.099841 -0.11878 -0.29085 -0.27609 0.34912 
nine -0.43781 0.53361 0.59966 0.58322 -0.771 -0.20648 -0.46845 -0.124 -0.20764 0.12986 
s -0.47168 0.54089 0.71767 0.53629 -0.54464 -0.25563 -0.33977 -0.31086 -0.29347 0.013806 
anarchism -0.43105 0.52081 0.88994 0.32172 -0.53904 -0.22003 -0.25735 -0.21922 -0.15588 0.34112 
are -0.51382 0.36275 0.7847 0.44763 -0.46777 -0.071513 -0.31305 -0.37336 -0.36179 0.42255 
autistic -0.46972 0.45276 0.85562 0.4488 -0.32509 -0.092002 -0.32416 -0.26151 -0.37283 0.22377 
by -0.42935 0.40118 0.75073 0.47561 -0.48016 -0.21292 -0.43109 -0.3816 -0.16398 0.39168 
anarchists -0.65479 0.38129 0.69821 0.38264 -0.56282 0.0156 -0.20139 -0.39631 -0.31492 0.44993 
on -0.4544 0.47521 0.75529 0.39307 -0.48965 -0.19169 -0.20234 -0.3677 -0.34425 0.36084 
be -0.4863 0.58539 0.71714 0.47811 -0.54659 -0.15525 -0.4219 -0.17844 -0.13165 0.43595 
two -0.58154 0.6412 0.65847 0.52091 -0.48644 -0.17574 -0.28174 -0.13191 -0.19224 0.25632 
an -0.53825 0.45689 0.75547 0.34104 -0.55585 -0.056072 -0.20143 -0.26729 -0.37938 0.29293 
it -0.32754 0.54078 0.76022 0.55791 -0.60926 -0.15847 -0.44681 -0.26607 -0.19297 0.25983 
from -0.44572 0.5682 0.76954 0.37861 -0.64317 -0.19698 -0.29705 -0.29044 -0.24153 0.14639 
anarchist -0.49753 0.4834 0.7664 0.40353 -0.5295 -0.2386 -0.28301 -0.15757 -0.31262 0.32182 
not -0.54945 0.47222 0.82363 0.47039 -0.45606 -0.17115 -0.26037 -0.17626 -0.20176 0.40102 
this -0.5894 0.61395 0.63509 0.41873 -0.46647 -0.049488 -0.2643 -0.28855 -0.11323 0.40972 
was -0.4773 0.54523 0.68403 0.4859 -0.43227 -0.13748 -0.30549 -0.31696 -0.23014 0.38426 
have -0.51998 0.52417 0.77098 0.34316 -0.56927 0.046173 -0.12645 -0.30951 -0.26312 0.40553 
some -0.39577 0.43171 0.74398 0.54546 -0.51928 0.084335 -0.23133 -0.32478 -0.30664 0.38924 
people -0.49006 0.47207 0.73448 0.35124 -0.4789 -0.1174 -0.16751 -0.40459 -0.28617 0.42775 
they -0.71719 0.37659 0.77928 0.34387 -0.3921 -0.088398 -0.29628 -0.32454 -0.19145 0.40553 
many -0.56082 0.5033 0.85827 0.35755 -0.47123 -0.042497 -0.17886 -0.36487 -0.25155 0.20312 
eight -0.42092 0.63048 0.58201 0.54528 -0.76525 -0.24489 -0.35113 -0.025507 -0.2787 0.085079 
at -0.50701 0.54281 0.85784 0.53921 -0.32342 -0.17536 -0.19581 -0.16232 -0.33966 0.19257 
three -0.44821 0.55812 0.66 0.51702 -0.63433 -0.26144 -0.27798 -0.091373 -0.36098 0.34098 
which -0.54661 0.59155 0.73673 0.46299 -0.3892 -0.096577 -0.17076 -0.31434 -0.17184 0.37548 
also -0.48596 0.46066 0.7901 0.41912 -0.4043 -0.15204 -0.16561 -0.25682 -0.38838 0.44333 
six -0.40662 0.60167 0.66731 0.42247 -0.69099 -0.19763 -0.27286 -0.11175 -0.22911 0.37852 
such -0.54332 0.36213 0.75311 0.44023 -0.46291 -0.11653 -0.37274 -0.16068 -0.29053 0.44033 
social -0.5628 0.43023 0.97916 0.48261 -0.31653 -0.31169 -0.33457 -0.15551 -0.31462 0.27705 
can -0.55074 0.50221 0.84325 0.42859 -0.41024 -0.05279 -0.33078 -0.16837 -0.33309 0.372 
other -0.53396 0.4786 0.75857 0.42592 -0.38251 -0.11751 -0.31039 -0.378 -0.36563 0.36271 
their -0.62764 0.45323 0.69053 0.48181 -0.4635 -0.17425 -0.23277 -0.41918 -0.15705 0.31174 
has -0.50167 0.5581 0.72326 0.50024 -0.41394 -0.25513 -0.25717 -0.16636 -0.2569 0.425 
abu -0.41305 0.53351 0.85791 0.40825 -0.53188 0.005945 -0.23964 -0.34952 -0.39441 0.33569 
dhabi -0.39112 0.5845 0.81156 0.38859 -0.50204 -0.058509 -0.38524 -0.26536 -0.40747 0.33901 
more -0.48849 0.53769 0.70295 0.54041 -0.62131 -0.12903 -0.28979 -0.34158 -0.19258 0.26316 
often -0.57363 0.46829 0.76042 0.32499 -0.38959 -0.10534 -0.25217 -0.35084 -0.35207 0.26464 
may -0.51763 0.47231 0.68859 0.44099 -0.48508 -0.019041 -0.3297 -0.35446 -0.30044 0.44948 
see -0.55082 0.4992 0.68181 0.4755 -0.3799 -0.17338 -0.21116 -0.40765 -0.33536 0.35602 
most -0.5823 0.39518 0.70162 0.54954 -0.58959 -0.087632 -0.30465 -0.29423 -0.23881 0.23693 
five -0.60237 0.48375 0.79882 0.42735 -0.4726 -0.16704 -0.40739 -0.31256 -0.28886 0.32241 
who -0.53971 0.47699 0.75687 0.32262 -0.5819 -0.2378 -0.22642 -0.3245 -0.31385 0.26301 
about -0.48666 0.54369 0.75101 0.5386 -0.38987 -0.21563 -0.34956 -0.15723 -0.35119 0.45954 
seven -0.51223 0.57277 0.53337 0.55829 -0.61998 -0.19587 -0.47635 -0.20182 -0.34595 0.20823 
anarcho -0.38009 0.55648 0.88756 0.39572 -0.61827 -0.14334 -0.2434 -0.34845 -0.27217 0.26136 
four -0.50644 0.70744 0.55992 0.46467 -0.64087 -0.16606 -0.33952 -0.23328 -0.28127 0.33582 
there -0.39096 0.61119 0.74561 0.40977 -0.48801 -0.09996 -0.37274 -0.2653 -0.29069 0.43817 
first -0.55714 0.36355 0.68029 0.44494 -0.50187 -0.12067 -0.25807 -0.19522 -0.29122 0.35922 
movement -0.52491 0.5208 0.87417 0.3199 -0.44129 -0.2053 -0.13381 -0.34331 -0.28148 0.28664 
albedo -0.438 0.65491 0.7587 0.49942 -0.55286 -0.23448 -0.2398 -0.17716 -0.074602 0.3373 
but -0.51364 0.49428 0.73959 0.41034 -0.48839 -0.10504 -0.32162 -0.23674 -0.27928 0.37211 
were -0.58916 0.51233 0.63189 0.47376 -0.49287 -0.085074 -0.31907 -0.35564 -0.34871 0.3056 
his -0.4439 0.59503 0.81999 0.37695 -0.52286 -0.22629 -0.25081 -0.20972 -0.14319 0.34213 
disorder -0.54222 0.32424 0.81917 0.53751 -0.5475 -0.26212 -0.22708 -0.39343 -0.24321 0.27196 
children -0.64341 0.44608 0.8117 0.39271 -0.38869 -0.15556 -0.33223 -0.28165 -0.2794 0.2265 
state -0.55488 0.45707 0.86936 0.50998 -0.40208 -0.10187 -0.26432 -0.22166 -0.18244 0.44036 
its -0.50499 0.43929 0.6868 0.51387 -0.59259 -0.13721 -0.33366 -0.19044 -0.21953 0.4447 
these -0.52434 0.54077 0.77483 0.45283 -0.51659 -0.021793 -0.12191 -0.37604 -0.20758 0.36404 
than -0.47363 0.51898 0.78285 0.55738 -0.46999 -0.048105 -0.23148 -0.21529 -0.24299 0.44363 
all -0.61924 0.49722 0.78072 0.52724 -0.45033 -0.12192 -0.345 -0.24443 -0.16284 0.29909 
what -0.48243 0.3962 0.8218 0.2573 -0.56781 -0.2103 -0.27685 -0.30047 -0.37948 0.2622 
society -0.61358 0.56288 0.61036 0.49504 -0.36469 -0.037541 -0.34112 -0.18694 -0.40099 0.32373 
language -0.53719 0.356 0.96972 0.39176 -0.39529 -0.042813 -0.29434 -0.23043 -0.2349 0.33645 
disorders -0.33662 0.43187 0.71023 0.46902 -0.688 -0.23346 -0.24476 -0.40139 -0.2338 0.32765 
spectrum -0.42028 0.39043 0.86764 0.44826 -0.42399 -0.21487 -0.29533 -0.23556 -0.48814 0.26318 
syndrome -0.60943 0.44886 0.7511 0.64776 -0.43723 -0.1441 -0.25442 -0.24569 -0.14869 0.32656 
groups -0.64443 0.42141 0.79439 0.35175 -0.50549 -0.20047 -0.17086 -0.368 -0.11683 0.38826 
use -0.43388 0.5081 0.78229 0.35396 -0.62292 -0.083612 -0.18353 -0.27032 -0.23224 0.43551 
he -0.57662 0.35312 0.83883 0.48911 -0.39692 -0.23291 -0.24872 -0.18369 -0.24092 0.40447 
them -0.5507 0.50449 0.69323 0.48191 -0.45069 -0.033549 -0.28741 -0.38745 -0.32036 0.39424 
early -0.52118 0.44246 0.77678 0.62336 -0.55694 -0.21611 -0.19003 -0.27634 -0.24882 0.26844 
would -0.53619 0.40716 0.85361 0.5649 -0.37713 -0.076769 -0.32292 -0.23762 -0.12718 0.42979 
anti -0.54597 0.49119 0.79113 0.40259 -0.38597 -0.13257 -0.17253 -0.21005 -0.27537 0.45594 
asperger -0.46512 0.45443 0.8965 0.51508 -0.56382 -0.16935 -0.33743 -0.14927 -0.1693 0.30167 
child -0.53793 0.46657 0.74246 0.54603 -0.49539 -0.044701 -0.24622 -0.28172 -0.29381 0.26324 
so -0.63701 0.33514 0.88282 0.2195 -0.52783 -0.16548 -0.34445 -0.4188 -0.20985 0.31944 
movements -0.56871 0.44872 0.77326 0.39805 -0.54869 -0.12165 -0.18835 -0.43543 -0.22288 0.21313 
however -0.51353 0.3533 0.81397 0.37045 -0.51205 -0.1901 -0.32362 -0.16667 -0.26303 0.30802 
those -0.49407 0.50266 0.70774 0.52115 -0.50322 -0.075086 -0.18444 -0.24622 -0.29143 0.38182 
do -0.57296 0.32997 0.84933 0.43511 -0.43665 -0.082247 -0.26031 -0.23767 -0.20938 0.42013 
property -0.49779 0.47878 0.78819 0.45304 -0.61896 -0.21599 -0.35787 -0.093554 -0.31092 0.37452 
united -0.44091 0.43265 0.78583 0.57593 -0.5276 -0.057597 -0.31096 -0.20732 -0.14898 0.32059 
used -0.41661 0.3808 0.85888 0.34451 -0.52767 -0.15715 -0.42349 -0.20748 -0.26789 0.2843 
when -0.5359 0.50111 0.8111 0.38692 -0.53789 -0.12732 -0.34666 -0.21627 -0.30519 0.26473 
post -0.41792 0.42942 0.73467 0.53945 -0.43469 -0.12824 -0.22397 -0.33165 -0.35865 0.32025 
form -0.4646 0.54325 0.7556 0.57517 -0.51242 -0.17142 -0.26548 -0.32618 -0.12359 0.36417 
high -0.4011 0.50532 0.85357 0.42066 -0.50908 -0.15134 -0.20855 -0.25421 -0.3445 0.39046 
term -0.47619 0.40324 0.8099 0.46121 -0.4368 -0.2978 -0.2894 -0.39021 -0.3164 0.13412 
ideas -0.63923 0.48038 0.72411 0.39995 -0.46097 0.028113 -0.3673 -0.18683 -0.29141 0.38793 
developmental -0.55809 0.45204 0.90524 0.51792 -0.4634 -0.26069 -0.21163 -0.23761 -0.19744 0.38376 
been -0.43321 0.51982 0.75492 0.48526 -0.46479 0.019417 -0.1722 -0.25862 -0.25532 0.48562 
within -0.42655 0.5552 0.82301 0.41502 -0.52101 -0.10809 -0.25388 -0.22238 -0.23003 0.30541 
although -0.54306 0.55524 0.797 0.4117 -0.41046 -0.23531 -0.32948 -0.26252 -0.31658 0.32254 
autistics -0.58427 0.5319 0.82138 0.31097 -0.57023 -0.26142 -0.16684 -0.29939 -0.38506 0.27497 
different -0.41141 0.61735 0.73863 0.60173 -0.57012 -0.02663 -0.099063 -0.27794 -0.33145 0.29225 
person -0.55268 0.49234 0.83065 0.39977 -0.42737 -0.13742 -0.23412 -0.31913 -0.29788 0.29889 
individuals -0.47493 0.5161 0.68018 0.50304 -0.53248 -0.075082 -0.33637 -0.1896 -0.34995 0.37792 
others -0.47008 0.58804 0.78464 0.31748 -0.41924 -0.072697 -0.27879 -0.30075 -0.29638 0.37816 
war -0.45323 0.4677 0.77871 0.6268 -0.40496 -0.066405 -0.27446 -0.28674 -0.29207 0.49316 
even -0.63537 0.44475 0.82713 0.34512 -0.43515 -0.061897 -0.26497 -0.30322 -0.2061 0.27816 
general -0.40331 0.52301 0.79335 0.58042 -0.39038 -0.22035 -0.36709 -0.25538 -0.32041 0.34624 
anarchy -0.48308 0.3597 0.7937 0.4468 -0.54472 -0.099648 -0.28528 -0.29588 -0.20438 0.20459 
proudhon -0.42223 0.5574 0.76791 0.53418 -0.52875 -0.088066 -0.23529 -0.24533 -0.24575 0.20204 
against -0.5082 0.53619 0.75336 0.50031 -0.38199 -0.17883 -0.30554 -0.27381 -0.36928 0.35885 
no -0.56308 0.42974 0.81777 0.47017 -0.45925 -0.084274 -0.40337 -0.31636 -0.26686 0.36058 
authoritarian -0.48432 0.59579 0.74934 0.49689 -0.39338 -0.20097 -0.30816 -0.28397 -0.15572 0.32931 
because -0.42502 0.45284 0.83785 0.52474 -0.47846 -0.20362 -0.18762 -0.26312 -0.11375 0.38773 
non -0.4391 0.47547 0.78169 0.52565 -0.49222 -0.040087 -0.11376 -0.28272 -0.30652 0.28224 
will -0.46324 0.40227 0.90664 0.44299 -0.48599 -0.21888 -0.34614 -0.2172 -0.288 0.41934 
due -0.48235 0.41448 0.77107 0.42879 -0.55817 -0.24435 -0.36889 -0.30939 -0.31988 0.2944 
example -0.49474 0.57606 0.80252 0.44666 -0.56901 -0.11145 -0.32639 -0.19442 -0.22444 0.26848 
if -0.49644 0.52569 0.79581 0.39543 -0.55246 -0.20315 -0.24388 -0.13285 -0.24141 0.41969 
communication -0.52097 0.46221 0.94797 0.39023 -0.33277 -0.15918 -0.28431 -0.26748 -0.38758 0.35718 
capitalism -0.46481 0.49392 0.81378 0.34076 -0.54874 -0.21861 -0.17179 -0.39236 -0.2709 0.38041 
self -0.41011 0.43167 0.81129 0.45163 -0.62035 -0.023333 -0.19004 -0.31509 -0.12591 0.38049 
workers -0.58377 0.54505 0.68808 0.58148 -0.52233 -0.12548 -0.13034 -0.23551 -0.3759 0.30641 
over -0.53566 0.50325 0.74248 0.54046 -0.52481 -0.16336 -0.24193 -0.16324 -0.20817 0.40821 
functioning -0.51834 0.47404 0.92711 0.45536 -0.37252 -0.0053727 -0.35652 -0.39544 -0.23839 0.3569 
had -0.42404 0.5257 0.75311 0.49328 -0.43158 -0.17438 -0.35189 -0.27133 -0.22346 0.2967 
new -0.47972 0.59086 0.63418 0.45143 -0.63704 -0.13958 -0.30897 -0.17283 -0.32014 0.35061 
called -0.52352 0.40653 0.73896 0.61158 -0.55113 -0.21609 -0.39192 -0.29058 -0.22865 0.25168 
increase -0.58157 0.58777 0.79865 0.39195 -0.58812 -0.26299 -0.14968 -0.34279 -0.27737 0.33591 
snow -0.4605 0.60428 0.74172 0.5602 -0.60656 -0.086023 -0.1778 -0.25936 -0.25212 0.46531 
out -0.57796 0.54351 0.81792 0.33882 -0.44331 -0.14959 -0.24825 -0.25283 -0.22235 0.32543 
violence -0.52967 0.42831 0.79695 0.56752 -0.417 -0.1883 -0.21409 -0.31353 -0.22117 0.4152 
while -0.51684 0.54959 0.6247 0.34604 -0.49108 -0.12031 -0.18769 -0.15857 -0.30117 0.441 
development -0.58045 0.56884 0.7468 0.36406 -0.44597 -0.093569 -0.15867 -0.37589 -0.1971 0.33931 
cnt -0.61311 0.63596 0.66598 0.52761 -0.42253 -0.15134 -0.31376 -0.22117 -0.28441 0.36894 
like -0.52838 0.56949 0.81125 0.40656 -0.50529 -0.15369 -0.21545 -0.30141 -0.18326 0.32719 
diagnosis -0.55037 0.52896 0.77143 0.42552 -0.53204 -0.17721 -0.30668 -0.29321 -0.19153 0.40701 
world -0.57371 0.63231 0.67673 0.60677 -0.34511 -0.22054 -0.2312 -0.26386 -0.26508 0.40012 
information -0.59065 0.43632 0.86666 0.2972 -0.62487 -0.045472 -0.15068 -0.14707 -0.33643 0.40643 
pervasive -0.40045 0.41848 0.82376 0.62532 -0.53113 -0.21207 -0.1982 -0.2909 -0.27612 0.2271 
bakunin -0.37786 0.53058 0.6103 0.50731 -0.72631 -0.31915 -0.34403 -0.25142 -0.24185 0.25159 
being -0.56627 0.4832 0.65936 0.40587 -0.48837 -0.1323 -0.35602 -0.30354 -0.34692 0.4648 
another -0.47232 0.49296 0.8803 0.5329 -0.3989 0.0147 -0.28546 -0.22975 -0.30719 0.26537 
part -0.45268 0.44934 0.73725 0.64312 -0.53793 -0.15322 -0.36882 -0.19813 -0.4026 0.29529 
history -0.40346 0.52092 0.75893 0.30948 -0.6007 -0.13461 -0.33918 -0.26376 -0.22497 0.46707 
century -0.47551 0.48922 0.7447 0.45789 -0.53671 -0.22175 -0.17968 -0.070287 -0.171 0.42474 
both -0.56949 0.58506 0.68891 0.44265 -0.40902 -0.094077 -0.34898 -0.34231 -0.14535 0.3506 
states -0.44462 0.48386 0.68405 0.55863 -0.45508 -0.22453 -0.18666 -0.28612 -0.27887 0.43174 
means -0.4768 0.6143 0.6678 0.43964 -0.38229 -0.19673 -0.39679 -0.31454 -0.21696 0.41131 
national -0.40543 0.59169 0.73658 0.50509 -0.60799 -0.22106 -0.17399 -0.36604 -0.16654 0.17848 
areas -0.59619 0.5897 0.86184 0.44691 -0.50237 0.0033309 -0.32857 -0.30307 -0.20555 0.46106 
much -0.48364 0.51732 0.80389 0.48862 -0.43212 -0.068358 -0.34942 -0.31618 -0.22467 0.36101 
age -0.40378 0.58606 0.79021 0.49323 -0.46271 -0.20554 -0.34347 -0.15375 -0.37509 0.33048 
lack -0.42229 0.45383 0.82534 0.49423 -0.41313 -0.16974 -0.14627 -0.27397 -0.29771 0.38643 
effect -0.40644 0.56983 0.86602 0.39318 -0.70526 -0.33736 -0.30731 -0.27951 -0.10392 0.34791 
number -0.56679 0.61542 0.73847 0.49508 -0.46159 -0.072718 -0.25596 -0.2205 -0.10232 0.24675 
system -0.4542 0.55519 0.79353 0.40977 -0.45438 -0.10272 -0.22911 -0.30539 -0.25715 0.33506 
sometimes -0.53316 0.37767 0.92837 0.46352 -0.4426 -0.076975 -0.18437 -0.31199 -0.2291 0.28773 
during -0.51627 0.54916 0.75064 0.55299 -0.41579 -0.11478 -0.24966 -0.24824 -0.1614 0.383 
revolution -0.51742 0.45724 0.60792 0.63232 -0.47641 -0.12965 -0.47204 -0.3773 -0.16712 0.42747 
work -0.37607 0.51109 0.84185 0.55244 -0.43478 -0.21654 -0.25409 -0.24218 -0.20355 0.34005 
feminist -0.46345 0.42365 0.80918 0.49158 -0.54444 -0.32477 -0.38521 -0.10558 -0.242 0.35096 
mental -0.46404 0.46892 0.73274 0.40383 -0.80346 -0.065142 -0.24 -0.21284 -0.28219 0.23715 
into -0.48247 0.50251 0.68823 0.437 -0.59914 -0.06851 -0.23374 -0.33187 -0.25358 0.41494 
after -0.56045 0.47261 0.77431 0.47839 -0.57053 -0.22696 -0.22032 -0.2453 -0.25148 0.20211 
certain -0.49162 0.54305 0.80566 0.46814 -0.45675 -0.22401 -0.20771 -0.35013 -0.3302 0.29785 
human -0.61573 0.52593 0.72149 0.45125 -0.44606 -0.20668 -0.24008 -0.26736 -0.2492 0.38801 
interaction -0.60658 0.3505 0.97809 0.44659 -0.44614 -0.095199 -0.26064 -0.1521 -0.28059 0.44103 
individual -0.5252 0.47951 0.78341 0.42114 -0.4734 -0.28042 -0.29581 -0.2068 -0.17779 0.41697 
culture -0.46464 0.48378 0.83435 0.47528 -0.56672 -0.16426 -0.32077 -0.27892 -0.15434 0.34062 
left -0.42914 0.34227 0.79735 0.51116 -0.52777 -0.18128 -0.26437 -0.32601 -0.27919 0.36207 
since -0.48303 0.64895 0.77105 0.37117 -0.47471 -0.1802 -0.30988 -0.22513 -0.25714 0.37001 
include -0.57558 0.43029 0.80307 0.55155 -0.36202 -0.071957 -0.30491 -0.27272 -0.22043 0.26981 
time -0.47039 0.53235 0.80606 0.44494 -0.54646 -0.15218 -0.18276 -0.41659 -0.25416 0.34866 
including -0.52549 0.35804 0.80832 0.36843 -0.51191 -0.19869 -0.29203 -0.34841 -0.36084 0.42359 
normal -0.45432 0.48004 0.83157 0.38999 -0.46442 -0.24536 -0.43962 -0.19708 -0.29297 0.37103 
emirates -0.59261 0.6561 0.56254 0.5245 -0.63145 -0.11873 -0.31766 -0.20098 -0.12464 0.34179 
class -0.44979 0.46306 0.76879 0.49396 -0.48295 -0.081067 -0.20721 -0.27587 -0.34054 0.39946 
common -0.56488 0.4465 0.78877 0.45602 -0.50041 -0.038315 -0.19623 -0.23951 -0.20159 0.27782 
behavior -0.43403 0.43712 0.95475 0.44912 -0.35637 -0.056484 -0.37137 -0.1474 -0.27267 0.38452 
oil -0.4361 0.54832 0.80972 0.25133 -0.6621 -0.12064 -0.34142 -0.14304 -0.30537 0.37594 
least -0.4803 0.47357 0.95244 0.5038 -0.29602 -0.079591 -0.22702 -0.24182 -0.30592 0.34072 
island -0.6182 0.33909 0.78513 0.51344 -0.56622 -0.080784 -0.34087 -0.30758 -0.46643 0.29376 
spanish -0.41753 0.53615 0.74281 0.57437 -0.54425 -0.23145 -0.33934 -0.16379 -0.23316 0.38939 
years -0.46443 0.50796 0.87822 0.54165 -0.50754 -0.1443 -0.41867 -0.14867 -0.328 0.25291 
believe -0.56439 0.47024 0.66654 0.49846 -0.39505 0.060001 -0.23586 -0.35353 -0.3081 0.27165 
philosophy -0.53145 0.50127 0.76409 0.43198 -0.54219 -0.062151 -0.13093 -0.35298 -0.12753 0.32993 
political -0.59642 0.49625 0.66917 0.47998 -0.4414 -0.17715 -0.19184 -0.18911 -0.17928 0.52598 
group -0.67078 0.52418 0.72586 0.46522 -0.62087 -0.14296 -0.24214 -0.18261 -0.24108 0.31657 
feminism -0.41965 0.5106 0.75721 0.51452 -0.67272 -0.09735 -0.35353 -0.2146 -0.21052 0.2816 
without -0.40361 0.43263 0.81161 0.34147 -0.60034 -0.083524 -0.33333 -0.21881 -0.16882 0.42344 
area -0.46638 0.4824 0.78455 0.57579 -0.67263 -0.16416 -0.22008 -0.13341 -0.12036 0.24795 
up -0.62606 0.57633 0.84626 0.53941 -0.43071 -0.099281 -0.24712 -0.28078 -0.20407 0.32192 
city -0.58416 0.46219 0.7732 0.45193 -0.40852 -0.17314 -0.24801 -0.26241 -0.30909 0.26047 
major -0.60542 0.50441 0.63979 0.5305 -0.59607 -0.2255 -0.18727 -0.14633 -0.18069 0.41281 
body -0.55697 0.52139 0.7231 0.47436 -0.42316 -0.10069 -0.30253 -0.25127 -0.17944 0.45451 
should -0.45465 0.41482 0.68413 0.44588 -0.54954 -0.1617 -0.25923 -0.28534 -0.28425 0.47705 
cure -0.67301 0.49898 0.65041 0.5572 -0.61812 -0.24584 -0.20987 -0.27044 -0.30214 0.14793 
around -0.59385 0.54192 0.75255 0.48398 -0.56488 -0.053294 -0.19874 -0.24142 -0.26329 0.2627 
international -0.42372 0.62186 0.73908 0.4524 -0.6435 -0.24881 -0.41408 -0.19998 -0.33045 0.21865 
must -0.40581 0.53705 0.73434 0.44987 -0.50697 -0.19074 -0.3388 -0.31955 -0.30508 0.30315 
al -0.47955 0.67587 0.78206 0.33629 -0.54591 -0.048808 -0.35463 -0.25876 -0.32062 0.34082 
list -0.4799 0.71744 0.73397 0.50778 -0.60817 -0.033349 -0.14982 -0.26115 -0.14395 0.16444 
community -0.39959 0.3897 0.85376 0.44999 -0.47077 -0.23555 -0.16207 -0.32162 -0.39789 0.30476 
syndicalism -0.30433 0.58101 0.8231 0.54621 -0.60776 -0.31385 -0.27251 -0.2914 -0.44311 0.29325 
through -0.53285 0.53932 0.7961 0.40413 -0.52079 -0.21482 -0.17881 -0.30451 -0.26282 0.30648 
modern -0.50933 0.52536 0.75409 0.34858 -0.52115 -0.19838 -0.28068 -0.34498 -0.28458 0.37888 
th -0.52825 0.44916 0.74368 0.43281 -0.61816 -0.22314 -0.13062 -0.20906 -0.15044 0.41726 
related -0.58126 0.51354 0.76042 0.3977 -0.53201 -0.10727 -0.34336 -0.19737 -0.29823 0.33485 
rett -0.57073 0.46079 0.93801 0.44769 -0.50517 -0.064791 -0.28419 -0.32266 -0.33617 0.26919 
need -0.5654 0.4899 0.81252 0.41887 -0.46847 -0.31067 -0.30258 -0.30674 -0.15825 0.3428 
average -0.52083 0.59641 0.72818 0.49246 -0.58209 -0.088574 -0.33379 -0.19884 -0.11555 0.32992 
she -0.49887 0.33664 0.70609 0.48828 -0.7139 -0.0075645 -0.24899 -0.14838 -0.33559 0.49112 
symptoms -0.54567 0.58935 0.68435 0.43503 -0.53709 -0.10601 -0.28172 -0.15842 -0.40694 0.32528 
adults -0.52324 0.47214 0.95416 0.48592 -0.42721 -0.018624 -0.22155 -0.17279 -0.31173 0.40558 
able -0.70104 0.54974 0.72733 0.42541 -0.35838 -0.092557 -0.31855 -0.3237 -0.30999 0.27324 
nature -0.37753 0.64643 0.81161 0.53254 -0.48377 -0.26865 -0.31436 -0.1529 -0.13005 0.33342 
anarcha -0.5368 0.53383 0.70678 0.57994 -0.52582 -0.24418 -0.23578 -0.1745 -0.22338 0.46786 
between -0.54712 0.50609 0.63778 0.44302 -0.45999 -0.21598 -0.32816 -0.41554 -0.26735 0.40475 
links -0.4884 0.54299 0.81426 0.48672 -0.72167 -0.11085 -0.10589 -0.31445 -0.27393 0.17975 
well -0.6248 0.47353 0.88247 0.39639 -0.45857 -0.052387 -0.23419 -0.27346 -0.22576 0.29854 
trees -0.59257 0.57963 0.75446 0.57079 -0.51331 -0.045714 -0.34617 -0.36561 -0.13105 0.26197 
only -0.57858 0.38125 0.84331 0.50232 -0.5519 0.017692 -0.17667 -0.3712 -0.30517 0.40822 
dsm -0.51699 0.43752 0.7282 0.44484 -0.72159 -0.18265 -0.40108 -0.30088 -0.28809 0.22671 
health -0.41025 0.41718 0.83499 0.55078 -0.46594 -0.25017 -0.15184 -0.17447 -0.27794 0.36484 
own -0.6457 0.38469 0.78606 0.51176 -0.51122 -0.053065 -0.24979 -0.18906 -0.18633 0.29569 
life -0.41047 0.47291 0.75502 0.3742 -0.53177 -0.22814 -0.30129 -0.26898 -0.29764 0.47895 
sensory -0.48061 0.58817 0.69344 0.38283 -0.48662 -0.13287 -0.37895 -0.26665 -0.3708 0.18898 
right -0.45553 0.55227 0.75093 0.46986 -0.51334 -0.14832 -0.37922 -0.37239 -0.28649 0.49327 
das -0.60796 0.45068 0.6892 0.57729 -0.50823 -0.014746 -0.28177 -0.16199 -0.40841 0.59355 
action -0.53072 0.46732 0.89593 0.47344 -0.51708 0.0073193 -0.12677 -0.21186 -0.14734 0.4999 
t -0.42762 0.43788 0.67986 0.5232 -0.49457 -0.049028 -0.41853 -0.37695 -0.23918 0.47776 
months -0.67138 0.49161 0.72243 0.45723 -0.42643 -0.053383 -0.3783 -0.20714 -0.23401 0.40291 
industrial -0.48614 0.49417 0.83089 0.51175 -0.38494 -0.21061 -0.068011 -0.38115 -0.42874 0.54104 
government -0.52136 0.48987 0.7268 0.61395 -0.47795 0.017513 -0.18104 -0.27467 -0.26695 0.39383 
thought -0.55068 0.40068 0.75363 0.4106 -0.51819 -0.24985 -0.37131 -0.2478 -0.36567 0.32813 
i -0.48504 0.45605 1.0031 0.40257 -0.47803 -0.074046 -0.2678 -0.28986 -0.10577 0.4074 
popular -0.51064 0.39717 0.70328 0.59924 -0.58878 -0.033234 -0.24283 -0.28024 -0.15007 0.52952 
resources -0.58491 0.51662 0.74857 0.44653 -0.58819 -0.21193 -0.37259 -0.15386 -0.25385 0.32071 
found -0.58949 0.47096 0.70818 0.37823 -0.51529 -0.048571 -0.27235 -0.22553 -0.31061 0.40873 
considered -0.41811 0.47218 0.8021 0.36972 -0.45898 -0.29048 -0.37448 -0.35267 -0.24556 0.39204 
way -0.47585 0.39718 0.79399 0.53197 -0.47614 -0.24033 -0.37898 -0.28222 -0.1433 0.2659 
kropotkin -0.6082 0.61551 0.58192 0.33312 -0.62635 -0.067906 -0.26659 -0.36727 -0.35788 0.38737 
civil -0.52897 0.55516 0.76739 0.5859 -0.45779 -0.085604 -0.22566 -0.33318 -0.31992 0.39812 
based -0.43946 0.4549 0.63323 0.46351 -0.59479 -0.16297 -0.45325 -0.4739 -0.2113 0.38539 
communism -0.52418 0.59639 0.73291 0.39277 -0.6743 -0.13761 -0.3643 -0.36357 -0.33929 0.087763 
structures -0.54324 0.45267 0.81635 0.55866 -0.40032 -0.070475 -0.38568 -0.29678 -0.23268 0.29093 
earth -0.47031 0.42912 0.76418 0.49528 -0.64227 -0.23495 -0.17632 -0.26145 -0.16626 0.43988 
revolutionary -0.59609 0.54147 0.80271 0.55557 -0.39617 -0.20198 -0.21657 -0.22824 -0.38175 0.36061 
does -0.53026 0.42518 0.8126 0.47416 -0.57541 -0.054558 -0.33099 -0.30654 -0.31877 0.23871 
true -0.61 0.41727 0.63353 0.5446 -0.53716 -0.19305 -0.33451 -0.29415 -0.3561 0.37521 
economic -0.51937 0.43482 0.78091 0.53568 -0.45693 -0.095963 -0.27786 -0.32447 -0.24805 0.31242 
childhood -0.49711 0.45279 0.87708 0.44348 -0.44401 -0.28282 -0.28924 -0.20994 -0.25846 0.32527 
conditions -0.49354 0.41224 0.70066 0.60109 -0.5167 -0.21889 -0.30428 -0.37881 -0.32117 0.24725 
late -0.57228 0.50993 0.69212 0.49432 -0.48843 -0.071535 -0.22082 -0.24884 -0.20424 0.42495 
g -0.5005 0.64101 0.69756 0.4932 -0.67299 -0.10127 -0.2997 -0.27583 -0.10942 0.50139 
labor -0.62827 0.57364 0.79001 0.54302 -0.34426 -0.29917 -0.25669 -0.35611 -0.10215 0.31324 
postal -0.49485 0.48683 0.87315 0.50647 -0.52973 -0.11491 -0.3248 -0.1719 -0.32767 0.38505 
might -0.65848 0.32792 0.86446 0.34909 -0.3608 -0.06822 -0.12963 -0.34671 -0.20682 0.44815 
known -0.55486 0.51202 0.85072 0.45474 -0.46926 -0.16362 -0.23881 -0.20598 -0.27854 0.3097 
before -0.45516 0.36944 0.78888 0.55857 -0.46752 -0.2569 -0.29443 -0.17232 -0.31825 0.40404 
argue -0.65703 0.41123 0.7521 0.51185 -0.33395 -0.01458 -0.15331 -0.3159 -0.25785 0.51995 
treatment -0.52982 0.46715 0.62383 0.42758 -0.57137 -0.14952 -0.22676 -0.36998 -0.24119 0.26602 
any -0.50255 0.47641 0.74267 0.44377 -0.47128 -0.035483 -0.28154 -0.19637 -0.24595 0.43114 
arab -0.52555 0.64175 0.60306 0.4799 -0.484 -0.1996 -0.3409 -0.35071 -0.1474 0.17834 
her -0.55616 0.42867 0.69227 0.57409 -0.52248 -0.1739 -0.36722 -0.27769 -0.13852 0.43868 
generally -0.36335 0.38835 0.7816 0.46631 -0.56754 -0.23414 -0.31832 -0.23048 -0.25555 0.40328 
environment -0.43808 0.6839 0.73809 0.36782 -0.5621 -0.064162 -0.23685 -0.35795 -0.2872 0.46836 
further -0.44985 0.48423 0.75705 0.44403 -0.59324 -0.010158 -0.10586 -0.37974 -0.35328 0.46789 
research -0.3812 0.6149 0.90698 0.56986 -0.38955 -0.16387 -0.29981 -0.29926 -0.16299 0.20834 
christian -0.56734 0.41961 0.78818 0.60662 -0.49203 -0.061419 -0.33038 -0.25192 -0.18764 0.2978 
institute -0.43418 0.59675 0.8347 0.45439 -0.50412 -0.16965 -0.18483 -0.16322 -0.28883 0.29985 
following -0.57195 0.61589 0.84113 0.45901 -0.42616 -0.10502 -0.19383 -0.24922 -0.24198 0.4249 
spain -0.51766 0.59062 0.62734 0.568 -0.55214 -0.23344 -0.25609 -0.21828 -0.28972 0.40857 
level -0.48067 0.53303 0.92821 0.50592 -0.41965 -0.18417 -0.32441 -0.32189 -0.24055 0.2354 
diagnostic -0.41099 0.52525 0.80325 0.45485 -0.69776 -0.13334 -0.21151 -0.27738 -0.24353 0.37669 
problems -0.46443 0.42481 0.94616 0.49189 -0.51996 0.025412 -0.36355 -0.3658 -0.20216 0.31788 
rather -0.49198 0.49948 0.63863 0.60327 -0.36563 -0.19103 -0.29919 -0.1815 -0.33547 0.30704 
working -0.47267 0.53999 0.706 0.45536 -0.54335 -0.11918 -0.15841 -0.19383 -0.31111 0.38864 
skills -0.61339 0.35172 0.81534 0.43582 -0.38314 -0.17064 -0.2311 -0.23331 -0.38969 0.4215 
specific -0.437 0.40709 0.83783 0.40411 -0.54563 -0.043213 -0.32109 -0.31317 -0.19895 0.22656 
radiation -0.54505 0.67327 0.68462 0.2988 -0.58513 -0.10651 -0.3202 -0.27965 -0.25865 0.37137 
just -0.44846 0.61481 0.73573 0.4774 -0.45912 -0.2669 -0.24209 -0.27916 -0.17723 0.34756 
interests -0.56721 0.49603 0.78843 0.47818 -0.3777 -0.15403 -0.12203 -0.27163 -0.28473 0.43402 
important -0.60236 0.59313 0.7723 0.35375 -0.41876 -0.072793 -0.29343 -0.27073 -0.16926 0.35599 
communists -0.47279 0.54126 0.78144 0.56117 -0.46086 -0.26835 -0.30538 -0.15607 -0.28168 0.34484 
individualist -0.45082 0.5083 0.73254 0.38613 -0.62478 -0.16298 -0.44563 -0.21778 -0.35743 0.39752 
until -0.46772 0.41595 0.78174 0.42924 -0.71887 -0.059543 -0.29571 -0.31033 -0.31993 0.47179 
became -0.48695 0.42117 0.72931 0.52452 -0.56124 -0.25648 -0.27553 -0.17419 -0.34742 0.21029 
org -0.61287 0.58698 0.88677 0.53625 -0.54896 -0.18816 -0.15144 -0.24414 -0.28373 0.27657 
themselves -0.41724 0.42343 0.78673 0.51355 -0.60281 0.00045841 -0.24511 -0.31359 -0.21688 0.4292 
year -0.47471 0.36884 0.77002 0.37518 -0.54105 -0.23258 -0.30866 -0.26121 -0.30907 0.36257 
association -0.37495 0.37334 0.74489 0.48606 -0.49932 -0.32134 -0.45378 -0.13874 -0.38524 0.4234 
repetitive -0.51766 0.60131 0.87246 0.34355 -0.52309 -0.087992 -0.33214 -0.25276 -0.18441 0.469 
n -0.60808 0.65493 0.7837 0.56188 -0.42094 -0.1425 -0.23469 -0.13962 -0.055381 0.31041 
led -0.6198 0.52435 0.69208 0.44938 -0.52874 -0.19634 -0.24806 -0.23215 -0.16508 0.36002 
created -0.41877 0.42721 0.74233 0.42469 -0.56014 -0.059311 -0.31688 -0.23048 -0.18492 0.49524 
students -0.5256 0.53383 0.8794 0.42158 -0.45594 -0.036467 -0.23335 -0.32297 -0.35362 0.28982 
parents -0.46085 0.54866 0.85619 0.5024 -0.52039 -0.082301 -0.22578 -0.33173 -0.11689 0.21725 
associated -0.59503 0.37361 0.81386 0.40863 -0.45793 -0.094918 -0.39859 -0.26486 -0.31118 0.2734 
black -0.51377 0.47812 0.87201 0.39113 -0.64008 -0.13872 -0.31281 -0.34185 -0.35912 0.23021 
authority -0.65417 0.33336 0.7303 0.48422 -0.57013 -0.20609 -0.15289 -0.27518 -0.23764 0.38149 
uae -0.52343 0.48024 0.68671 0.42549 -0.59715 -0.19831 -0.35696 -0.24599 -0.36802 0.32859 
leo -0.68877 0.42437 0.65424 0.68056 -0.63416 -0.1106 -0.24338 -0.32694 -0.21955 0.4709 
large -0.437 0.42736 0.69889 0.38555 -0.57922 -0.086552 -0.34294 -0.32266 -0.27658 0.43214 
set -0.53193 0.46563 0.96776 0.33045 -0.39947 -0.19247 -0.26131 -0.39972 -0.29856 0.288 
rise -0.45948 0.57466 0.76343 0.39832 -0.51081 -0.19077 -0.25678 -0.24325 -0.19732 0.40307 
help -0.67086 0.45216 0.79248 0.48626 -0.589 -0.096423 -0.33752 -0.18269 -0.36016 0.26092 
natural -0.49738 0.57449 0.74014 0.4717 -0.48535 -0.17997 -0.24342 -0.27052 -0.21466 0.27874 
very -0.40252 0.56411 0.65997 0.57349 -0.51791 -6.7802e-05 -0.34502 -0.24777 -0.39782 0.43442 
typical -0.44332 0.36171 0.73929 0.35509 -0.50823 -0.080111 -0.33428 -0.13955 -0.36513 0.47414 
force -0.51412 0.47286 0.71021 0.62248 -0.43482 -0.1941 -0.28583 -0.27278 -0.43671 0.32592 
fascist -0.55956 0.55667 0.63594 0.45758 -0.57089 0.016358 -0.33256 -0.25064 -0.16958 0.55711 
word -0.47195 0.56405 0.75858 0.29629 -0.58937 -0.073843 -0.15562 -0.25001 -0.12886 0.32701 
view -0.44046 0.53616 0.81863 0.47657 -0.52115 -0.091488 -0.21474 -0.29203 -0.27466 0.24128 
light -0.52581 0.56309 0.73647 0.50233 -0.54915 -0.23716 -0.35912 -0.28166 -0.28768 0.21833 
activity -0.5979 0.51514 0.76684 0.42364 -0.47157 -0.2109 -0.32295 -0.2419 -0.34461 0.43711 
goldman -0.51826 0.54806 0.88995 0.43063 -0.57017 -0.22982 -0.42306 -0.19166 -0.14357 0.32291 
usually -0.40742 0.54599 0.80488 0.51497 -0.57811 -0.27242 -0.20313 -0.23091 -0.17773 0.39584 
french -0.44919 0.46118 0.73161 0.51978 -0.59675 -0.12852 -0.24047 -0.23786 -0.10686 0.29338 
warren -0.66176 0.42993 0.72849 0.36123 -0.50826 -0.20182 -0.35638 -0.32469 -0.26259 0.31181 
criteria -0.46389 0.39668 0.79592 0.49466 -0.50229 -0.12277 -0.23026 -0.33517 -0.33801 0.41175 
particular -0.4625 0.52444 0.80722 0.46697 -0.43535 -0.078324 -0.34725 -0.36578 -0.33624 0.37524 
little -0.4551 0.54587 0.79201 0.41562 -0.52976 -0.10866 -0.29499 -0.34704 -0.21168 0.36026 
later -0.41331 0.52189 0.6703 0.54416 -0.64267 -0.19661 -0.35761 -0.21694 -0.2011 0.24804 
speech -0.56796 0.42055 0.82733 0.46143 -0.54132 -0.053303 -0.20315 -0.15371 -0.2615 0.33179 
views -0.38095 0.43796 0.7482 0.50839 -0.69667 -0.057876 -0.28946 -0.25239 -0.1425 0.44923 
published -0.51991 0.36039 0.7461 0.44427 -0.55033 -0.22945 -0.26121 -0.18736 -0.36219 0.32791 
point -0.54893 0.40889 0.84451 0.39311 -0.479 -0.19601 -0.17472 -0.29628 -0.1297 0.20231 
institutions -0.52804 0.41373 0.83313 0.376 -0.54925 -0.23121 -0.42058 -0.31465 -0.20031 0.29767 
student -0.57428 0.4344 0.83604 0.3429 -0.46499 -0.1706 -0.34066 -0.12081 -0.26791 0.29242 
libertarian -0.50614 0.47532 0.85376 0.4866 -0.46961 -0.2601 -0.33293 -0.20005 -0.26182 0.28829 
us -0.44832 0.6 0.83859 0.43783 -0.53137 -0.045999 -0.17081 -0.32676 -0.13586 0.3 
play -0.483 0.43169 0.91944 0.47335 -0.56809 -0.12651 -0.31234 -0.22619 -0.16182 0.37629 
american -0.55454 0.45545 0.58634 0.52649 -0.43395 -0.11833 -0.21625 -0.33803 -0.28353 0.36993 
described -0.42085 0.48007 0.76884 0.36415 -0.56623 -0.061968 -0.19186 -0.27963 -0.31926 0.36034 
stamps -0.56022 0.49134 0.8015 0.53994 -0.70673 -0.17938 -0.30836 -0.20261 -0.2887 0.49031 
where -0.53409 0.55923 0.77341 0.48369 -0.36845 -0.081751 -0.40147 -0.17099 -0.16683 0.3292 
today -0.60076 0.36065 0.78076 0.4217 -0.56216 -0.26432 -0.2958 -0.30065 -0.25478 0.31329 
communist -0.55186 0.47618 0.81971 0.48559 -0.54102 -0.15243 -0.33385 -0.21625 -0.26012 0.3333 
how -0.70549 0.34774 0.788 0.33873 -0.34355 -0.17593 -0.26814 -0.15786 -0.406 0.40867 
tucker -0.50952 0.44239 0.8893 0.46504 -0.59433 -0.037027 -0.37906 -0.21102 -0.34435 0.38036 
schools -0.5627 0.38799 0.73313 0.52079 -0.39516 -0.05589 -0.1967 -0.34393 -0.34544 0.36915 
now -0.59756 0.39775 0.8156 0.55042 -0.4703 -0.18183 -0.43744 -0.32113 -0.34513 0.4351 
theory -0.39827 0.44405 0.83151 0.55912 -0.52261 -0.2133 -0.22686 -0.21844 -0.36335 0.21311 
similar -0.599 0.62312 0.7094 0.33965 -0.48208 -0.22538 -0.38101 -0.32812 -0.14953 0.39811 
every -0.46089 0.56788 0.81911 0.3745 -0.59446 -0.08284 -0.35418 -0.23687 -0.37051 0.29393 
free -0.55479 0.46012 0.85266 0.34212 -0.52164 -0.19996 -0.14725 -0.14863 -0.30028 0.36126 
members -0.68178 0.40891 0.79949 0.52823 -0.42309 -0.043731 -0.193 -0.36408 -0.24291 0.41386 
famous -0.53187 0.46338 0.68687 0.54384 -0.63903 -0.076626 -0.19963 -0.30378 -0.22912 0.37979 
significant -0.57102 0.41972 0.89703 0.45479 -0.50247 -0.11714 -0.39914 -0.21175 -0.35778 0.22524 
intellectual -0.54115 0.43655 0.95087 0.46689 -0.41797 -0.058717 -0.36239 -0.26662 -0.21705 0.49767 
effects -0.47874 0.46881 0.73881 0.46487 -0.56699 -0.093298 -0.16131 -0.39743 -0.323 0.46927 
prior -0.53752 0.44103 0.9019 0.34767 -0.51366 -0.18586 -0.27619 -0.21799 -0.36306 0.37419 
few -0.41971 0.46339 0.74898 0.394 -0.46361 -0.094379 -0.37932 -0.36278 -0.31631 0.37577 
control -0.58829 0.41693 0.78131 0.44899 -0.59048 0.0039535 -0.21951 -0.28436 -0.19086 0.47641 
e -0.41767 0.6671 0.74746 0.55388 -0.55571 -0.1443 -0.42537 -0.2909 -0.32413 0.25768 
long -0.55327 0.51176 0.93355 0.32403 -0.42568 -0.24473 -0.3818 -0.21351 -0.26572 0.29786 
uk -0.5751 0.54593 0.75723 0.65232 -0.53793 -0.014857 -0.26217 -0.41239 -0.20721 0.50267 
conflict -0.42131 0.6238 0.68705 0.40291 -0.48573 -0.24301 -0.15931 -0.4046 -0.26764 0.29889 
communities -0.60436 0.45325 0.77538 0.49902 -0.48989 -0.12582 -0.11085 -0.31522 -0.41496 0.44603 
clouds -0.4973 0.60152 0.84597 0.4793 -0.7603 -0.025178 -0.15638 -0.22967 -0.27576 0.48437 
british -0.51806 0.54144 0.63968 0.49318 -0.67634 -0.067458 -0.1835 -0.2448 -0.33243 0.34106 
though -0.46363 0.63485 0.81036 0.51525 -0.48605 -0.32552 -0.43719 -0.27524 -0.27387 0.24002 
take -0.54736 0.40674 0.78484 0.42012 -0.49717 -0.15439 -0.18314 -0.18086 -0.38162 0.41308 
advocate -0.44161 0.54309 0.74276 0.51254 -0.4153 -0.029033 -0.47266 -0.39845 -0.3208 0.3412 
global -0.51367 0.46786 0.70859 0.50981 -0.60825 -0.19048 -0.21209 -0.23016 -0.12154 0.52164 
great -0.51565 0.64358 0.81683 0.48883 -0.4964 -0.12698 -0.22406 -0.2774 -0.21387 0.30704 
trucial -0.52098 0.46904 0.7216 0.54268 -0.53432 -0.059187 -0.15821 -0.35739 -0.20606 0.38168 
largest -0.5959 0.50242 0.64555 0.40118 -0.49412 -0.16054 -0.19192 -0.34323 -0.254 0.27745 
ruler -0.57598 0.51326 0.8204 0.40376 -0.45665 -0.14813 -0.23241 -0.13905 -0.15572 0.41409 
particularly -0.51992 0.55322 0.79885 0.41162 -0.58807 -0.1185 -0.28726 -0.35452 -0.26837 0.24524 
october -0.40937 0.51333 0.57263 0.54823 -0.67437 -0.26189 -0.38069 -0.36127 -0.25288 0.41243 
stereotyped -0.40496 0.53105 0.96571 0.37823 -0.40753 -0.22062 -0.2571 -0.2366 -0.25047 0.47044 
liberty -0.63368 0.56422 0.71449 0.48906 -0.56037 -0.16697 -0.26747 -0.23512 -0.36255 0.33996 
difficult -0.51361 0.42247 0.78416 0.38377 -0.53823 -0.22254 -0.22301 -0.295 -0.1996 0.46806 
learning -0.49218 0.34937 0.86241 0.25566 -0.58142 -0.18549 -0.24666 -0.14775 -0.34976 0.27603 
fascism -0.42432 0.61557 0.84861 0.45131 -0.52934 -0.058927 -0.21576 -0.24754 -0.17925 0.33834 
warming -0.46159 0.64451 0.8197 0.52155 -0.73567 -0.19314 -0.1427 -0.20353 -0.21182 0.31003 
f -0.38954 0.60895 0.78882 0.43678 -0.54087 -0.26686 -0.30869 -0.31329 -0.293 0.40843 
low -0.42825 0.47904 0.91637 0.47609 -0.50182 -0.13351 -0.34881 -0.16744 -0.22091 0.24307 
ability -0.52347 0.47355 0.84455 0.36027 -0.36923 -0.1257 -0.32983 -0.21709 -0.284 0.43938 
patterns -0.44478 0.60744 0.85785 0.46586 -0.34709 -0.19118 -0.26124 -0.22758 -0.29943 0.36614 
focus -0.49055 0.51951 0.87677 0.42042 -0.51941 -0.13978 -0.17773 -0.20409 -0.31893 0.46515 
kanner -0.41611 0.57236 0.72197 0.57775 -0.49788 -0.13885 -0.19667 -0.25443 -0.30635 0.25841 
com -0.55513 0.58867 0.74699 0.44159 -0.46275 -0.1739 -0.20507 -0.22117 -0.31766 0.34093 
sheikh -0.59716 0.63691 0.74551 0.38065 -0.54729 -0.091971 -0.17801 -0.30196 -0.17023 0.35566 
opposed -0.64254 0.57104 0.8236 0.45736 -0.48167 -0.27034 -0.34726 -0.20248 -0.23043 0.17587 
school -0.49379 0.43529 0.70794 0.40532 -0.55382 -0.28003 -0.33147 -0.19888 -0.26902 0.34025 
supported -0.48293 0.57527 0.79549 0.42796 -0.43339 -0.23139 -0.2932 -0.18619 -0.35155 0.38975 
c -0.53717 0.55457 0.71224 0.57608 -0.642 -0.33529 -0.34292 -0.24755 -0.13963 0.41853 
tend -0.42174 0.50178 0.90831 0.58753 -0.57658 -0.043709 -0.27857 -0.31276 -0.15351 0.32009 
man -0.53193 0.53882 0.61398 0.47396 -0.59865 -0.057353 -0.33221 -0.24069 -0.21521 0.49487 
temperature -0.45866 0.58632 0.74488 0.45387 -0.62207 -0.14116 -0.37109 -0.18326 -0.21776 0.35234 
surface -0.5401 0.5792 0.65649 0.42331 -0.55881 -0.19265 -0.20752 -0.31856 -0.18719 0.43231 
english -0.50545 0.26625 0.77002 0.40127 -0.61122 -0.16967 -0.30718 -0.25661 -0.31146 0.30585 
delays -0.45859 0.41503 0.87013 0.46018 -0.38476 -0.24091 -0.315 -0.24781 -0.30879 0.3888 
rights -0.50624 0.55664 0.7193 0.42742 -0.58769 -0.14159 -0.32456 -0.20868 -0.1716 0.38474 
difference -0.53552 0.50969 0.70873 0.50022 -0.56711 -0.18873 -0.14705 -0.20846 -0.19838 0.44256 
principles -0.63607 0.41133 0.6643 0.54864 -0.59507 -0.086742 -0.28455 -0.33569 -0.23859 0.28398 
present -0.54726 0.41158 0.71389 0.49903 -0.51288 -0.25734 -0.37573 -0.2162 -0.27841 0.48501 
current -0.52432 0.52822 0.81714 0.42805 -0.36353 -0.13395 -0.26003 -0.17454 -0.33505 0.34582 
m -0.65497 0.62119 0.69548 0.37915 -0.3804 -0.28816 -0.38782 -0.31758 -0.16164 0.38718 
communicate -0.51269 0.50382 0.81269 0.56609 -0.5002 -0.14587 -0.25606 -0.28813 -0.22848 0.20654 
europe -0.40647 0.51954 0.73243 0.47266 -0.59115 -0.1684 -0.22228 -0.28199 -0.23878 0.34749 
trouble -0.51988 0.49294 0.80031 0.3551 -0.47827 -0.10595 -0.23212 -0.38989 -0.17754 0.50342 
still -0.6236 0.43526 0.7295 0.37388 -0.40316 -0.23018 -0.23211 -0.2173 -0.25555 0.34459 
tolstoy -0.57623 0.41021 0.8433 0.56542 -0.55235 -0.0085671 -0.22878 -0.38618 -0.09042 0.32788 
violent -0.57074 0.3468 0.69059 0.55762 -0.52534 -0.1336 -0.30192 -0.2068 -0.36658 0.44427 
labour -0.42161 0.48256 0.74315 0.46014 -0.57727 -0.16749 -0.3533 -0.28037 -0.29017 0.34424 
same -0.49667 0.39369 0.82235 0.44825 -0.53523 -0.11819 -0.31907 -0.37286 -0.35725 0.33566 
interest -0.56925 0.4264 0.83821 0.43087 -0.37191 -0.071361 -0.29202 -0.30735 -0.11491 0.33733 
article -0.44229 0.48583 0.87919 0.36801 -0.56168 -0.074332 -0.23476 -0.34697 -0.10544 0.27348 
religious -0.51247 0.46705 0.7973 0.36711 -0.53157 0.038787 -0.12987 -0.2207 -0.34733 0.41413 
speak -0.60604 0.5422 0.8584 0.40884 -0.5201 -0.13494 -0.2428 -0.36066 -0.26737 0.21915 
small -0.59845 0.47614 0.8707 0.39497 -0.51987 -0.29937 -0.17729 -0.27918 -0.36528 0.3691 
better -0.58769 0.41263 0.76757 0.5027 -0.41724 -0.052229 -0.36096 -0.38929 -0.16083 0.23116 
production -0.56994 0.4215 0.69827 0.48972 -0.60778 -0.11894 -0.33418 -0.24367 -0.20519 0.25875 
covered -0.44655 0.57345 0.81975 0.57218 -0.65884 -0.24262 -0.21752 -0.30106 -0.093355 0.4129 
day -0.43788 0.56396 0.84671 0.27173 -0.57188 -0.018357 -0.36741 -0.2696 -0.32328 0.52133 
public -0.52653 0.48525 0.80541 0.42241 -0.58999 -0.12309 -0.27995 -0.21332 -0.24832 0.42101 
single -0.55571 0.43908 0.77162 0.4858 -0.44232 -0.11056 -0.29916 -0.36648 -0.32515 0.30658 
de -0.56395 0.4101 0.81741 0.37329 -0.52002 -0.34491 -0.38174 -0.24177 -0.1481 0.31958 
reference -0.58676 0.45505 0.91096 0.48905 -0.3987 -0.16021 -0.30397 -0.43578 -0.16625 0.25894 
change -0.53737 0.45812 0.6944 0.37759 -0.68576 -0.23335 -0.24207 -0.3067 -0.28482 0.36728 
emma -0.64263 0.48257 0.63587 0.6511 -0.58298 -0.28138 -0.14049 -0.2221 -0.18915 0.30597 
condition -0.41694 0.39542 0.85716 0.44451 -0.59423 -0.21685 -0.2192 -0.16516 -0.34728 0.33356 
iq -0.61583 0.44191 0.77314 0.53184 -0.52085 -0.004836 -0.34036 -0.11021 -0.35477 0.34402 
william -0.52016 0.39255 0.77698 0.35962 -0.53539 -0.22878 -0.20358 -0.14601 -0.24342 0.37499 
labels -0.50893 0.46619 0.80355 0.36742 -0.67571 -0.19561 -0.39579 -0.15354 -0.22388 0.29485 
behaviors -0.45558 0.4051 0.87168 0.36581 -0.40088 -0.2293 -0.3579 -0.3696 -0.39555 0.24873 
statistical -0.48077 0.28072 0.70604 0.39184 -0.67605 -0.20112 -0.27509 -0.363 -0.26103 0.40051 
godwin -0.46365 0.37708 0.87377 0.48423 -0.61046 -0.13855 -0.23444 -0.26664 -0.11671 0.21741 
manual -0.37432 0.46549 0.75594 0.51517 -0.72883 -0.05286 -0.32807 -0.20003 -0.38172 0.28541 
awareness -0.47994 0.47377 0.69921 0.53172 -0.49249 -0.21903 -0.22375 -0.20196 -0.3437 0.30765 
theorists -0.58298 0.37361 0.77013 0.45179 -0.54721 -0.21369 -0.30785 -0.21703 -0.081456 0.36651 
become -0.61475 0.55384 0.75325 0.5436 -0.44378 -0.2021 -0.33545 -0.25207 -0.26369 0.28948 
wealth -0.49394 0.48893 0.69458 0.46455 -0.51389 -0.13702 -0.14737 -0.23967 -0.2449 0.21117 
law -0.58216 0.50124 0.75041 0.37288 -0.56703 -0.11919 -0.31972 -0.2418 -0.23766 0.19947 
given -0.48179 0.54962 0.76089 0.5109 -0.52567 -0.25951 -0.42541 -0.30583 -0.22449 0.3304 
pdd -0.40503 0.56331 0.89534 0.58747 -0.4352 -0.22096 -0.2053 -0.24797 -0.22281 0.3658 
daily -0.48235 0.42078 0.68339 0.50067 -0.63761 -0.24532 -0.30138 -0.27714 -0.17948 0.39934 
fact -0.42916 0.50387 0.76965 0.58739 -0.46684 -0.23603 -0.32889 -0.43835 -0.31212 0.20663 
marx -0.48392 0.5174 0.54827 0.42594 -0.61492 -0.21283 -0.38459 -0.28234 -0.29088 0.39812 
upon -0.42325 0.63778 0.67067 0.38533 -0.52814 -0.17924 -0.45593 -0.36557 -0.17503 0.41399 
cgt -0.65872 0.47829 0.78795 0.59668 -0.53485 -0.14959 -0.41738 -0.35615 -0.27857 0.18377 
environmental -0.65549 0.67236 0.7213 0.40841 -0.39913 -0.2379 -0.3095 -0.2809 -0.26437 0.34847 
syndicalist -0.5209 0.47855 0.83018 0.60375 -0.45825 -0.171 -0.20097 -0.29693 -0.23781 0.24641 
mutual -0.49279 0.59795 0.7282 0.41716 -0.68974 -0.17575 -0.27379 -0.1408 -0.13946 0.38223 
diagnosed -0.51217 0.46546 0.78779 0.55098 -0.39135 -0.25102 -0.25727 -0.35594 -0.26162 0.25414 
partly -0.52537 0.48051 0.86163 0.57469 -0.41952 -0.11651 -0.36615 -0.23465 -0.29216 0.37154 
several -0.41944 0.44574 0.72762 0.44015 -0.57777 -0.24416 -0.42592 -0.1948 -0.34779 0.27484 
iv -0.47238 0.31524 0.69515 0.46452 -0.66364 -0.031437 -0.24068 -0.3585 -0.22452 0.29894 
zayed -0.40868 0.60096 0.7789 0.42257 -0.56138 -0.085771 -0.14534 -0.15984 -0.16085 0.48545 
below -0.57506 0.37747 0.79354 0.51812 -0.4823 -0.015091 -0.30638 -0.38139 -0.28905 0.2504 
direct -0.58276 0.38335 0.76849 0.47197 -0.58626 -0.19324 -0.243 -0.24152 -0.15062 0.50785 
services -0.57984 0.44054 0.7275 0.5873 -0.46897 -0.027997 -0.15169 -0.2112 -0.30795 0.31251 
study -0.54359 0.57026 0.78446 0.48512 -0.40697 -0.11647 -0.19976 -0.2259 -0.27402 0.46991 
dr -0.55884 0.61883 0.65369 0.61032 -0.62861 -0.062196 -0.27203 -0.37774 -0.16546 0.19665 
living -0.57164 0.54113 0.7367 0.40789 -0.42355 -0.045891 -0.19422 -0.22061 -0.23447 0.45945 
cultural -0.5095 0.45899 0.72933 0.5936 -0.52435 -0.03767 -0.38007 -0.22375 -0.30175 0.32758 
stirner -0.6081 0.51015 0.82388 0.3598 -0.58662 -0.14185 -0.38123 -0.37282 -0.082991 0.21955 
color -0.4551 0.59851 0.81349 0.61822 -0.48983 -0.18389 -0.38191 -0.16589 -0.26827 0.2823 
values -0.58878 0.45161 0.80974 0.43099 -0.6451 -0.12568 -0.19393 -0.3754 -0.096174 0.46936 
sovereignty -0.57268 0.57415 0.65084 0.51697 -0.41846 -0.1396 -0.17259 -0.32384 -0.2934 0.30155 
reason -0.55782 0.46137 0.729 0.42756 -0.56576 -0.09238 -0.333 -0.20327 -0.23328 0.277 
label -0.58214 0.54614 0.74525 0.42646 -0.54101 -0.00044661 -0.20941 -0.20214 -0.11847 0.40593 
understand -0.61886 0.49388 0.71885 0.34721 -0.40368 -0.14949 -0.30434 -0.43868 -0.1741 0.40466 
front -0.47512 0.34983 0.80466 0.51363 -0.52073 0.028851 -0.32623 -0.27415 -0.35046 0.39518 
difficulties -0.57251 0.40367 0.80845 0.3251 -0.43228 -0.16712 -0.22518 -0.34353 -0.28697 0.38595 
fascists -0.55367 0.53191 0.66683 0.61143 -0.43383 -0.07113 -0.2393 -0.28268 -0.20268 0.52948 
examples -0.54347 0.50582 0.67067 0.54714 -0.45025 -0.15327 -0.19797 -0.32385 -0.26343 0.37688 
scale -0.56907 0.41552 0.84248 0.40699 -0.62342 -0.16034 -0.17435 -0.27779 -0.28978 0.32195 
recent -0.60145 0.52816 0.7123 0.39809 -0.41778 -0.19368 -0.17949 -0.20398 -0.2714 0.43256 
develop -0.62208 0.43234 0.75158 0.44818 -0.58572 -0.22395 -0.12813 -0.37388 -0.1869 0.29884 
made -0.55173 0.57209 0.72459 0.57579 -0.44445 -0.051603 -0.15147 -0.3013 -0.31124 0.27554 
appear -0.48875 0.50774 0.77746 0.38044 -0.55109 -0.069243 -0.3788 -0.1945 -0.19944 0.46517 
complete -0.52108 0.52502 0.65685 0.32183 -0.65823 -0.066624 -0.34715 -0.21301 -0.32475 0.27095 
idea -0.55102 0.3656 0.672 0.39724 -0.60018 -0.055238 -0.40794 -0.27518 -0.11941 0.3833 
western -0.51571 0.41389 0.66696 0.40079 -0.54569 -0.17301 -0.14622 -0.24981 -0.12885 0.48065 
higher -0.45645 0.46808 0.78332 0.44255 -0.35639 -0.0096751 -0.24309 -0.3283 -0.32037 0.42455 
involved -0.53038 0.45015 0.79131 0.4486 -0.49803 -0.10999 -0.31411 -0.14497 -0.26761 0.39137 
trade -0.65439 0.49331 0.76221 0.48269 -0.53356 -0.11208 -0.28753 -0.21499 -0.2413 0.24017 
author -0.50724 0.38584 0.77898 0.57164 -0.54075 -0.1879 -0.37453 -0.17005 -0.16481 0.4084 
tropical -0.52821 0.57424 0.85824 0.50149 -0.59944 -0.057888 -0.23213 -0.40543 -0.29609 0.45344 
physical -0.48379 0.54638 0.84199 0.40631 -0.57618 -0.099348 -0.23886 -0.27958 -0.23275 0.3194 
throughout -0.72885 0.40406 0.86165 0.48011 -0.48199 -0.11026 -0.12246 -0.43613 -0.24474 0.22203 
amount -0.42365 0.46806 0.79976 0.49248 -0.46652 -0.12931 -0.29618 -0.37953 -0.16096 0.37285 
kingdom -0.55186 0.49815 0.6107 0.63199 -0.57475 -0.05611 -0.38955 -0.34524 -0.30006 0.34208 
forests -0.45072 0.60444 0.87623 0.50999 -0.69354 -0.17617 -0.29939 -0.31347 -0.092192 0.47237 
unusual -0.61889 0.48885 0.82204 0.41355 -0.37821 -0.19083 -0.30679 -0.27241 -0.28223 0.31336 
referred -0.41862 0.3664 0.80714 0.50946 -0.36581 -0.11472 -0.29274 -0.31632 -0.23672 0.30554 
france -0.48214 0.39776 0.73275 0.49476 -0.52676 -0.17113 -0.15798 -0.22061 -0.3194 0.22875 
regions -0.60162 0.49813 0.88718 0.41478 -0.58459 -0.11935 -0.28711 -0.34745 -0.16506 0.46787 
cause -0.48591 0.40079 0.88229 0.53919 -0.54498 -0.054461 -0.21773 -0.44638 -0.21596 0.37829 
book -0.4759 0.47375 0.78276 0.51962 -0.45156 -0.19422 -0.40572 -0.27578 -0.30206 0.46288 
mean -0.47733 0.39935 0.78187 0.53246 -0.59948 -0.060781 -0.25898 -0.37425 -0.27433 0.42252 
benjamin -0.53329 0.47787 0.77036 0.50694 -0.5475 -0.15829 -0.48652 -0.28562 -0.39867 0.2473 
interpretations -0.46837 0.48555 0.66599 0.47773 -0.5489 0.020328 -0.32561 -0.36936 -0.28855 0.27877 
green -0.50293 0.53904 0.84913 0.33004 -0.63092 -0.22436 -0.25999 -0.13518 -0.27193 0.4417 
controversial -0.53747 0.4793 0.71371 0.42561 -0.56552 -0.13646 -0.31247 -0.36099 -0.17889 0.32299 
books -0.54871 0.6602 0.708 0.39494 -0.74553 -0.02903 -0.21754 -0.14955 -0.16386 0.26647 
seem -0.4865 0.46055 0.82523 0.38218 -0.39061 -0.19123 -0.35501 -0.31945 -0.30071 0.43537 
relatively -0.68332 0.40403 0.90479 0.59336 -0.37396 -0.17592 -0.33001 -0.15031 -0.20508 0.33096 
difficulty -0.55381 0.38079 0.81658 0.5107 -0.49614 -0.13133 -0.18433 -0.12613 -0.16751 0.25528 
terms -0.48996 0.56541 0.65734 0.45654 -0.47662 -0.20113 -0.33336 -0.1969 -0.1804 0.50446 
power -0.54581 0.53153 0.76131 0.55618 -0.46045 -0.041884 -0.34102 -0.34784 -0.32402 0.27253 
voting -0.52586 0.35596 0.84881 0.31382 -0.50747 -0.1772 -0.26103 -0.26723 -0.45008 0.26123 
capitalist -0.39991 0.5278 0.85239 0.43633 -0.6043 -0.033313 -0.22346 -0.19672 -0.27581 0.2277 
bolsheviks -0.55961 0.38279 0.66964 0.53839 -0.58259 -0.061404 -0.13492 -0.31402 -0.27464 0.53789 
belief -0.61946 0.41697 0.71085 0.58622 -0.4972 -0.065296 -0.3105 -0.18337 -0.23177 0.48319 
know -0.57991 0.6296 0.80579 0.4539 -0.52883 -0.20016 -0.22756 -0.30453 -0.30403 0.37358 
rothbard -0.53645 0.44203 0.84253 0.43558 -0.49977 -0.17467 -0.31122 -0.35985 -0.3006 0.23048 
things -0.4992 0.52839 0.83803 0.4553 -0.45128 -0.06051 -0.29595 -0.15968 -0.28438 0.24509 
climate -0.45561 0.4585 0.76243 0.56954 -0.66306 -0.1353 -0.15202 -0.15839 -0.3383 0.33997 
classical -0.49681 0.44667 0.86349 0.40374 -0.44606 -0.28527 -0.3241 -0.15042 -0.35267 0.28878 
section -0.45481 0.36255 0.77561 0.52279 -0.47117 -0.16123 -0.17751 -0.33085 -0.34171 0.3334 
describe -0.45897 0.44028 0.88586 0.34812 -0.50128 -0.24773 -0.36741 -0.24074 -0.13957 0.27201 
estimate -0.41996 0.44877 0.75729 0.41401 -0.68034 -0.1591 -0.21639 -0.30806 -0.13339 0.31231 
d -0.52935 0.45767 0.73622 0.37268 -0.57716 -0.094753 -0.34202 -0.32665 -0.29718 0.23754 
aid -0.49347 0.44761 0.76031 0.45453 -0.62201 -0.27219 -0.3473 -0.12538 -0.23718 0.3392 
highly -0.508 0.60493 0.7292 0.42455 -0.57939 -0.21995 -0.31457 -0.18289 -0.19379 0.33878 
various -0.43363 0.53801 0.76003 0.40829 -0.3851 -0.15268 -0.14891 -0.18829 -0.36769 0.42319 
winter -0.58527 0.51127 0.70026 0.52508 -0.5002 -0.063263 -0.23258 -0.2144 -0.24367 0.38613 
factors -0.59967 0.60671 0.74398 0.37849 -0.61551 -0.24473 -0.16787 -0.29976 -0.22575 0.39479 
attention -0.61684 0.44939 0.78986 0.35651 -0.57313 -0.05266 -0.14326 -0.38431 -0.37815 0.28346 
concepts -0.53756 0.54811 0.88888 0.35048 -0.49692 -0.23601 -0.17396 -0.28901 -0.18064 0.22336 
autonomous -0.40181 0.5473 0.75975 0.41634 -0.49693 -0.070607 -0.37699 -0.13669 -0.11431 0.41121 
researchers -0.53246 0.55447 0.85673 0.45939 -0.32268 -0.04219 -0.1903 -0.34344 -0.30376 0.26333 
dark -0.6533 0.573 0.72115 0.56941 -0.63158 -0.13126 -0.29195 -0.35596 -0.2281 0.46241 
shown -0.52647 0.47295 0.73849 0.51593 -0.42385 -0.01564 -0.28093 -0.39759 -0.28264 0.42561 
acts -0.50269 0.42436 0.72002 0.42514 -0.50447 -0.13456 -0.36789 -0.29003 -0.27474 0.43923 
contemporary -0.42953 0.57435 0.85096 0.43623 -0.57816 -0.2976 -0.13728 -0.21537 -0.42612 0.22491 
ways -0.61402 0.49235 0.73709 0.38934 -0.4039 -0.25361 -0.14802 -0.24457 -0.23787 0.4033 
critique -0.55612 0.63106 0.88205 0.53675 -0.41616 -0.19198 -0.098748 -0.25117 -0.19329 0.61923 
patriarchy -0.4424 0.56767 0.79488 0.36951 -0.45452 -0.12583 -0.31171 -0.2466 -0.14073 0.50606 
service -0.53603 0.50898 0.82851 0.53017 -0.50421 -0.00629 -0.30282 -0.37972 -0.24747 0.51666 
itself -0.39128 0.48886 0.77229 0.56091 -0.4075 -0.18109 -0.13505 -0.34611 -0.14542 0.37845 
tropics -0.42569 0.46004 0.67624 0.54827 -0.66579 -0.1224 -0.32447 -0.38365 -0.33853 0.38298 
feminists -0.44549 0.46094 0.84875 0.52028 -0.5743 -0.085897 -0.26868 -0.16657 -0.36507 0.50142 
technology -0.48816 0.44778 0.69055 0.39529 -0.55264 -0.19134 -0.20518 -0.27215 -0.26385 0.35422 
away -0.59582 0.54571 0.70067 0.55327 -0.62902 -0.28355 -0.40926 -0.18835 -0.30779 0.12821 
thus -0.44183 0.52894 0.69802 0.56589 -0.61466 -0.17727 -0.29538 -0.23772 -0.31085 0.4427 
typically -0.61137 0.35132 0.74787 0.49329 -0.43105 -0.23529 -0.24084 -0.34858 -0.30528 0.30286 
bin -0.45822 0.45124 0.87608 0.42058 -0.57121 -0.04396 -0.32327 -0.18952 -0.27277 0.47305 
civilization -0.60174 0.5247 0.81465 0.3421 -0.37013 -0.27886 -0.059767 -0.33791 -0.35584 0.60302 
journal -0.502 0.37682 0.75773 0.46515 -0.50205 -0.11893 -0.40044 -0.12794 -0.23547 0.31156 
depends -0.46 0.48554 0.74063 0.404 -0.5194 -0.12263 -0.27921 -0.23269 -0.22209 0.31677 
make -0.39861 0.49386 0.9326 0.45882 -0.44922 -0.15559 -0.32053 -0.31951 -0.21512 0.27722 
issue -0.46811 0.54128 0.82092 0.52052 -0.39164 -0.13768 -0.32144 -0.26719 -0.18715 0.33691 
causes -0.39093 0.42569 0.85567 0.50341 -0.61322 -0.1078 -0.19698 -0.26247 -0.33865 0.25446 
resist -0.4807 0.50057 0.70161 0.45371 -0.60093 -0.036323 -0.27818 -0.28825 -0.35708 0.25876 
saw -0.53108 0.6191 0.74219 0.44927 -0.47149 -0.22018 -0.249 -0.22311 -0.17141 0.25355 
easily -0.5161 0.36459 0.79551 0.39645 -0.52121 -0.2456 -0.24948 -0.29747 -0.15485 0.4119 
making -0.47785 0.52088 0.8495 0.43606 -0.49754 -0.07541 -0.16175 -0.18367 -0.373 0.27281 
give -0.46554 0.62188 0.64424 0.50929 -0.45558 -0.098728 -0.2318 -0.19156 -0.19488 0.4775 
writing -0.60175 0.40515 0.81028 0.55551 -0.50434 -0.10177 -0.19162 -0.13195 -0.24688 0.32022 
developing -0.42249 0.52953 0.7947 0.39214 -0.43866 -0.17579 -0.27812 -0.27824 -0.33065 0.18374 
paris -0.54981 0.46416 0.72301 0.42365 -0.68524 -0.18937 -0.13897 -0.30587 -0.412 0.25334 
source -0.46887 0.49938 0.78688 0.33521 -0.69856 -0.17863 -0.13122 -0.18807 -0.14387 0.42739 
makes -0.55842 0.47201 0.84941 0.32802 -0.5047 -0.16142 -0.19558 -0.30056 -0.21145 0.45358 
understanding -0.39931 0.46736 0.82845 0.5316 -0.45512 -0.14968 -0.18858 -0.23647 -0.23134 0.42045 
founded -0.53276 0.6208 0.81671 0.43902 -0.43526 -0.1686 -0.29738 -0.15749 -0.27731 0.29423 
central -0.4459 0.42606 0.87043 0.50732 -0.50266 -0.18907 -0.23485 -0.19042 -0.23917 0.17913 
support -0.50391 0.50042 0.78391 0.56634 -0.36693 -0.14256 -0.25041 -0.26702 -0.39996 0.24182 
opposition -0.49676 0.56799 0.82379 0.36741 -0.44093 -0.19234 -0.13125 -0.19829 -0.19533 0.36947 
chomsky -0.44799 0.46527 0.85348 0.66201 -0.53958 -0.13657 -0.18629 -0.2983 -0.34343 0.12563 
noam -0.46862 0.32296 0.91309 0.5706 -0.65997 0.063564 -0.35242 -0.23133 -0.27363 0.14125 
references -0.43474 0.53419 0.88484 0.40882 -0.50571 -0.14991 -0.30925 -0.28703 -0.22469 0.31991 
center -0.41839 0.43441 0.82758 0.46282 -0.4953 -0.24962 -0.23421 -0.29342 -0.33138 0.25462 
main -0.4727 0.41578 0.82245 0.46723 -0.45146 -0.078629 -0.30753 -0.25805 -0.22219 0.35043 
lives -0.63681 0.57642 0.761 0.46797 -0.5085 -0.027857 -0.31304 -0.22031 -0.24 0.21756 
you -0.58811 0.46904 0.71225 0.6165 -0.60923 -0.20679 -0.25358 -0.41904 -0.25182 0.52942 
bolshevik -0.59159 0.44892 0.67172 0.58484 -0.45075 -0.045637 -0.26846 -0.40196 -0.23179 0.34827 
impact -0.44456 0.41417 0.75095 0.38844 -0.58072 -0.092853 -0.26972 -0.22707 -0.32675 0.42914 
temperatures -0.547 0.52534 0.78464 0.46529 -0.53413 -0.06749 -0.2399 -0.38574 -0.37031 0.39059 
hand -0.65306 0.43561 0.70145 0.59615 -0.63383 -0.20929 -0.17826 -0.25909 -0.41099 0.3416 
russian -0.48567 0.44578 0.66862 0.56197 -0.58741 -0.26607 -0.26694 -0.33045 -0.22996 0.3385 
federation -0.56404 0.41369 0.78733 0.41569 -0.58024 -0.18547 -0.10915 -0.35072 -0.37829 0.39045 
solidarity -0.51122 0.47849 0.85798 0.56254 -0.5136 -0.094172 -0.13104 -0.32495 -0.3779 0.39936 
expression -0.48619 0.64504 0.76505 0.37312 -0.50439 -0.16794 -0.25633 -0.21612 -0.34717 0.37827 
utopian -0.51044 0.53554 0.80947 0.51873 -0.42776 -0.20538 -0.31501 -0.32354 -0.19958 0.31331 
rebellion -0.55696 0.57773 0.62238 0.63972 -0.56547 -0.1386 -0.38341 -0.23662 -0.19085 0.26667 
we -0.70657 0.45491 0.85818 0.32758 -0.53573 -0.063277 -0.29608 -0.1494 -0.26633 0.29479 
god -0.71212 0.57426 0.67215 0.6309 -0.48771 -0.13323 -0.33969 -0.35588 -0.30439 0.50147 
abnormal -0.52075 0.59283 0.86559 0.40819 -0.54866 -0.1941 -0.32781 -0.22475 -0.19568 0.39109 
continued -0.54329 0.50496 0.77999 0.53171 -0.47733 -0.10708 -0.3388 -0.2036 -0.42778 0.42255 
degree -0.45566 0.5775 0.66499 0.47528 -0.50564 0.014941 -0.27081 -0.30339 -0.1919 0.36804 
external -0.34858 0.435 0.80588 0.59167 -0.53938 -0.0061896 -0.18321 -0.33833 -0.32854 0.28023 
tends -0.52907 0.43005 0.75078 0.51924 -0.51685 -0.047816 -0.27649 -0.21238 -0.34621 0.34383 
therefore -0.52901 0.58362 0.71146 0.51115 -0.40393 -0.065152 -0.19934 -0.37816 -0.162 0.27487 
racist -0.54968 0.45069 0.88698 0.45098 -0.68559 0.016935 -0.16435 -0.22007 -0.1508 0.37667 
tendency -0.60614 0.36018 0.77287 0.39075 -0.51499 -0.19076 -0.1407 -0.28787 -0.20303 0.42871 
insurrectionary -0.5621 0.47865 0.89556 0.31363 -0.43838 -0.26586 -0.26618 -0.18785 -0.33305 0.38943 
january -0.43004 0.55568 0.87485 0.55688 -0.67617 -0.034769 -0.35385 -0.15866 -0.34473 0.27215 
ain -0.48487 0.55887 0.79087 0.59865 -0.4592 -0.15519 -0.29247 -0.35293 -0.2326 0.27719 
organizations -0.53423 0.61476 0.81389 0.37605 -0.41388 -0.044792 -0.28424 -0.27418 -0.23727 0.36956 
range -0.6909 0.48534 0.74682 0.50294 -0.62637 -0.16576 -0.35033 -0.34284 -0.18127 0.34822 
organization -0.65931 0.57062 0.75212 0.55003 -0.36872 -0.10711 -0.29467 -0.3227 -0.294 0.35846 
past -0.62157 0.53647 0.71363 0.60969 -0.5306 -0.17972 -0.31765 -0.1983 -0.20283 0.37789 
issues -0.44257 0.53822 0.90055 0.38212 -0.6016 -0.083464 -0.32393 -0.37884 -0.28583 0.43889 
armed -0.48015 0.4055 0.82671 0.42026 -0.49637 -0.23337 -0.34595 -0.30252 -0.28143 0.48461 
resistance -0.45248 0.51708 0.82755 0.35226 -0.56393 -0.19609 -0.13685 -0.20589 -0.34618 0.31721 
back -0.46463 0.36875 0.69095 0.54475 -0.5829 -0.01303 -0.34939 -0.23749 -0.32428 0.37193 
syndicalists -0.64235 0.47166 0.69672 0.36728 -0.42151 -0.1964 -0.30328 -0.4256 -0.35663 0.31667 
cities -0.62549 0.68619 0.81857 0.4373 -0.54357 -0.053181 -0.3979 -0.23778 -0.22466 0.32846 
cases -0.48545 0.5975 0.74436 0.466 -0.51238 -0.072608 -0.36805 -0.18523 -0.15413 0.46257 
globalization -0.5366 0.40778 0.93152 0.5046 -0.66444 -0.19819 -0.26725 -0.30612 -0.27496 0.19279 
diagnoses -0.51865 0.51986 0.76235 0.53682 -0.43308 -0.157 -0.25966 -0.262 -0.2296 0.35026 
punk -0.44315 0.5898 0.79812 0.31408 -0.61226 -0.00076027 -0.27624 -0.14725 -0.097786 0.37673 
forms -0.45388 0.57017 0.84975 0.41411 -0.47342 -0.21533 -0.18708 -0.15604 -0.3208 0.44072 
seek -0.5487 0.57962 0.71313 0.53584 -0.43848 -0.12703 -0.19531 -0.3241 -0.29481 0.26617 
represented -0.43124 0.57944 0.81617 0.47018 -0.44 -0.13806 -0.23531 -0.20514 -0.15641 0.42936 
using -0.44944 0.44759 0.71707 0.51612 -0.54562 -0.10557 -0.22439 -0.21575 -0.32601 0.32554 
end -0.61155 0.453 0.8421 0.44036 -0.43452 0.012955 -0.26684 -0.12053 -0.29486 0.43787 
competition -0.59125 0.46019 0.78238 0.52721 -0.51786 -0.16908 -0.35915 -0.17687 -0.20375 0.30091 
could -0.51104 0.55114 0.61841 0.58664 -0.42401 -0.13797 -0.17078 -0.22771 -0.25009 0.44515 
assert -0.60668 0.53355 0.96047 0.37175 -0.48521 -0.036103 -0.43341 -0.17977 -0.18704 0.45773 
believed -0.43229 0.41693 0.81596 0.49056 -0.59886 -0.18633 -0.36115 -0.19991 -0.22903 0.29137 
european -0.46925 0.48359 0.71616 0.31454 -0.58104 -0.069453 -0.25449 -0.35768 -0.31728 0.26298 
marxist -0.65083 0.46936 0.61164 0.59101 -0.5748 -0.1873 -0.19289 -0.27524 -0.35653 0.39629 
mainly -0.56251 0.60951 0.72639 0.33916 -0.35819 -0.19927 -0.28437 -0.23246 -0.23225 0.46728 
going -0.58883 0.57219 0.7819 0.32353 -0.63242 -0.1464 -0.40463 -0.29298 -0.28304 0.25549 
teachers -0.5757 0.46915 0.88162 0.30956 -0.57778 -0.10933 -0.34642 -0.28869 -0.27847 0.32009 
words -0.60681 0.432 0.68318 0.4222 -0.56785 -0.10193 -0.21635 -0.23027 -0.26354 0.40611 
subject -0.44434 0.44118 0.75207 0.48468 -0.3946 -0.048201 -0.31334 -0.15541 -0.36126 0.364 
agency -0.44874 0.44089 0.69238 0.36353 -0.67347 -0.17458 -0.35804 -0.26825 -0.31404 0.51641 
says -0.48764 0.45124 0.74215 0.40991 -0.489 -0.21582 -0.39209 -0.11934 -0.42478 0.34721 
market -0.59902 0.50495 0.86904 0.39947 -0.45033 -0.084485 -0.27135 -0.13175 -0.32186 0.2949 
joseph -0.51906 0.435 0.77954 0.2843 -0.66554 -0.25998 -0.36008 -0.25467 -0.29033 0.43429 
follow -0.54558 0.48163 0.74968 0.59256 -0.56153 -0.085386 -0.16303 -0.17924 -0.18053 0.41107 
clinicians -0.5137 0.38605 0.82186 0.38452 -0.64165 -0.25439 -0.19908 -0.40176 -0.17967 0.21872 
him -0.52515 0.48795 0.81484 0.37895 -0.43011 -0.15556 -0.35774 -0.1385 -0.33444 0.35889 
claim -0.50486 0.33809 0.84336 0.55494 -0.43283 -0.11339 -0.06431 -0.31553 -0.24151 0.49071 
according -0.41815 0.42429 0.8392 0.32565 -0.42492 -0.17775 -0.41487 -0.17526 -0.26362 0.28971 
infantile -0.40891 0.58787 0.68408 0.57209 -0.61726 -0.21778 -0.17404 -0.24871 -0.22214 0.355 
online -0.54237 0.44436 0.71521 0.47443 -0.55273 -0.05009 -0.37537 -0.20629 -0.23213 0.40177 
good -0.53203 0.61307 0.75975 0.35414 -0.50921 0.0048445 -0.2116 -0.41997 -0.19476 0.26877 
issued -0.50956 0.55445 0.79816 0.44781 -0.56061 -0.20424 -0.29141 -0.16384 -0.34386 0.48976 
behavioral -0.47049 0.43842 0.71296 0.35541 -0.65977 -0.12023 -0.26604 -0.26884 -0.21182 0.37051 
facial -0.52247 0.58297 0.74704 0.36321 -0.58689 -0.26327 -0.3359 -0.41867 -0.16586 0.38174 
types -0.59716 0.52613 0.75018 0.49203 -0.62692 -0.094377 -0.20043 -0.34353 -0.27272 0.42303 
accepted -0.53415 0.58966 0.87282 0.45628 -0.43676 -0.035615 -0.17559 -0.38201 -0.24781 0.31429 
something -0.39163 0.62061 0.83177 0.53203 -0.53632 -0.010424 -0.32531 -0.16003 -0.24519 0.34227 
mikhail -0.52774 0.45568 0.68134 0.43325 -0.56333 -0.16917 -0.3786 -0.20699 -0.18835 0.44866 
bahrain -0.59427 0.58287 0.70261 0.55292 -0.47933 -0.11471 -0.35088 -0.32516 -0.31181 0.44536 
appropriate -0.47546 0.49102 0.6879 0.43694 -0.52497 -0.17461 -0.26677 -0.30346 -0.36674 0.16673 
private -0.45254 0.5171 0.76756 0.52589 -0.39521 -0.031163 -0.23654 -0.17166 -0.34136 0.27132 
active -0.43715 0.55982 0.82991 0.4205 -0.65153 -0.073947 -0.28783 -0.31407 -0.3184 0.26437 
wrote -0.48435 0.50835 0.80608 0.439 -0.48925 -0.10007 -0.22456 -0.12915 -0.35472 0.44194 
organisation -0.60755 0.5665 0.7379 0.46444 -0.56763 -0.14843 -0.14211 -0.27376 -0.19626 0.25684 
reported -0.46238 0.47085 0.73767 0.50608 -0.53525 -0.15124 -0.20251 -0.29599 -0.26753 0.2232 
egoism -0.54012 0.47847 0.69512 0.50814 -0.51639 0.043906 -0.38184 -0.3903 -0.085818 0.26779 
teaching -0.53679 0.42406 0.82835 0.4774 -0.48756 -0.17112 -0.27511 -0.17973 -0.29916 0.26591 
disintegrative -0.56654 0.47547 0.92652 0.5016 -0.41419 -0.16731 -0.25414 -0.29948 -0.28555 0.40376 
developed -0.34088 0.52316 0.7611 0.47177 -0.55409 -0.13524 -0.30719 -0.17498 -0.17119 0.43586 
situations -0.54955 0.50953 0.67254 0.44126 -0.56031 -0.19944 -0.21291 -0.26686 -0.14516 0.36321 
noted -0.56983 0.34574 0.77469 0.37399 -0.59223 -0.24282 -0.39682 -0.23801 -0.31175 0.39886 
argued -0.61356 0.61387 0.83203 0.44726 -0.46313 -0.099729 -0.21098 -0.31996 -0.13854 0.22506 
changes -0.50599 0.56789 0.82191 0.37361 -0.62908 -0.024225 -0.087158 -0.16005 -0.27742 0.42674 
teacher -0.54059 0.56161 0.82384 0.35192 -0.56612 -0.053641 -0.38641 -0.34857 -0.15894 0.38596 
join -0.64741 0.36639 0.72291 0.62479 -0.48017 -0.035402 -0.41765 -0.2184 -0.25655 0.38667 
neocolonialism -0.63179 0.38092 0.81215 0.50169 -0.48294 -0.019274 -0.2035 -0.22539 -0.38009 0.21533 
marked -0.6145 0.46762 0.78104 0.32654 -0.47253 -0.22614 -0.24357 -0.23621 -0.37212 0.29989 
cooler -0.47309 0.50124 0.84694 0.58602 -0.51478 -0.10899 -0.34621 -0.30371 -0.1981 0.35457 
anabaptists -0.53517 0.38576 0.7083 0.53907 -0.49113 -0.049961 -0.1009 -0.33209 -0.20971 0.32894 
divided -0.61364 0.47943 0.61602 0.55281 -0.5543 -0.17472 -0.22317 -0.19178 -0.3106 0.44131 
discussion -0.37976 0.38969 0.6736 0.35255 -0.51436 -0.082175 -0.32194 -0.31308 -0.21318 0.37002 
multiple -0.51484 0.5015 0.74817 0.49946 -0.50664 -0.24594 -0.28303 -0.17566 -0.27265 0.33911 
mail -0.59604 0.44201 0.80361 0.59629 -0.6479 -0.16746 -0.27845 -0.32008 -0.34613 0.52106 
create -0.50873 0.60681 0.69128 0.41497 -0.47736 0.035842 -0.36195 -0.35916 -0.22295 0.30467 
cool -0.50502 0.60729 0.94493 0.43609 -0.69227 -0.11167 -0.22271 -0.29134 -0.2905 0.36487 
helps -0.45535 0.59162 0.87051 0.54197 -0.4929 -0.20493 -0.22116 -0.37371 -0.19984 0.315 
greek -0.50129 0.4758 0.70609 0.35918 -0.49132 -0.19785 -0.27857 -0.28925 -0.22956 0.26586 
summer -0.57313 0.5459 0.76211 0.42953 -0.47057 -0.2449 -0.33697 -0.36558 -0.17345 0.44376 
uses -0.5965 0.42997 0.78316 0.46804 -0.41827 -0.13862 -0.20229 -0.27941 -0.36737 0.27269 
defined -0.489 0.50621 0.62605 0.43718 -0.56643 -0.075416 -0.22791 -0.24816 -0.15895 0.30231 
comes -0.43235 0.52666 0.87283 0.35661 -0.57652 -0.048724 -0.27267 -0.28703 -0.19227 0.43519 
specified -0.38494 0.58209 1.0316 0.66311 -0.42158 -0.24929 -0.074835 -0.34576 -0.46494 0.34776 
otherwise -0.42654 0.52846 1.0334 0.62315 -0.41316 -0.26327 -0.16013 -0.41876 -0.42234 0.42218 
impairment -0.5427 0.42015 0.75132 0.49053 -0.41046 -0.25466 -0.31636 -0.14272 -0.32755 0.34937 
principle -0.56446 0.49243 0.67805 0.58402 -0.36057 -0.077394 -0.27106 -0.31182 -0.2225 0.35392 
max -0.59994 0.49939 0.80058 0.4125 -0.57599 -0.010858 -0.32292 -0.33586 -0.13093 0.28126 
advocated -0.6222 0.34807 0.74228 0.39365 -0.5302 -0.072132 -0.3365 -0.23197 -0.21264 0.50067 
office -0.51529 0.47785 0.8254 0.43543 -0.44891 -0.10803 -0.30038 -0.3899 -0.30421 0.34021 
urban -0.57754 0.55321 0.77454 0.58797 -0.34324 -0.033705 -0.22044 -0.31298 -0.33657 0.26556 
mind -0.61425 0.40428 0.69293 0.40684 -0.46932 -0.16544 -0.29067 -0.18145 -0.26529 0.44111 
separate -0.47379 0.46386 0.66463 0.40926 -0.50958 -0.11651 -0.27109 -0.1724 -0.2201 0.4318 
publicly -0.56352 0.51791 0.78952 0.38512 -0.62024 -0.074145 -0.33432 -0.1887 -0.13626 0.34251 
manifested -0.58378 0.55718 0.85859 0.50285 -0.41232 -0.20657 -0.10387 -0.2242 -0.22609 0.22913 
film -0.57645 0.48521 0.69419 0.49747 -0.47608 -0.16125 -0.207 -0.24681 -0.33916 0.37707 
reality -0.52072 0.47533 0.67677 0.42687 -0.42612 -0.14548 -0.3408 -0.34667 -0.22367 0.30737 
population -0.39417 0.58448 0.65699 0.45684 -0.59459 -0.27739 -0.31232 -0.23933 -0.34579 0.30656 
disabilities -0.52328 0.49983 0.77645 0.49098 -0.5112 -0.23591 -0.29296 -0.3214 -0.24352 0.3071 
russia -0.45623 0.40633 0.72608 0.59134 -0.47632 -0.1135 -0.30054 -0.28662 -0.35241 0.27192 
objects -0.53874 0.56784 0.80077 0.47649 -0.388 -0.097467 -0.28193 -0.21685 -0.18375 0.32438 
kronstadt -0.51661 0.39775 0.76929 0.56216 -0.51662 -0.12857 -0.37283 -0.17899 -0.23083 0.30239 
nevertheless -0.4434 0.46929 0.80305 0.46993 -0.44598 -0.14461 -0.29078 -0.29692 -0.32466 0.3299 
prefer -0.42261 0.3876 0.73409 0.43187 -0.37352 -0.16596 -0.32889 -0.18246 -0.22026 0.41193 
wing -0.45736 0.45628 0.74949 0.41581 -0.63509 -0.19182 -0.33053 -0.21041 -0.28833 0.42134 
soon -0.43724 0.42974 0.68305 0.36417 -0.5406 -0.20468 -0.37254 -0.33277 -0.29518 0.34508 
initially -0.63806 0.42598 0.70539 0.49058 -0.46761 -0.023885 -0.27632 -0.35013 -0.29293 0.28195 
february -0.49273 0.33021 0.73672 0.47815 -0.53997 -0.1936 -0.30259 -0.284 -0.20624 0.42889 
alongside -0.49624 0.55205 0.67843 0.53413 -0.44384 -0.12102 -0.31922 -0.2884 -0.14328 0.48496 
robert -0.45507 0.42093 0.72909 0.2854 -0.49836 0.091862 -0.23637 -0.32615 -0.3173 0.3932 
order -0.4805 0.39206 0.65129 0.55963 -0.60656 -0.13268 -0.36117 -0.22069 -0.3506 0.23215 
possible -0.48108 0.44029 0.7488 0.43849 -0.45622 -0.11108 -0.21946 -0.23098 -0.3289 0.309 
local -0.58536 0.52275 0.75255 0.54385 -0.58095 -0.062591 -0.23715 -0.17115 -0.23102 0.22036 
leftist -0.44443 0.38619 0.68674 0.46976 -0.5049 -0.1975 -0.072078 -0.2499 -0.33263 0.42922 
critics -0.43448 0.44932 0.7983 0.55482 -0.43513 -0.10837 -0.17984 -0.32739 -0.31162 0.32376 
far -0.5135 0.41383 0.72709 0.45422 -0.56188 -0.059015 -0.20415 -0.28381 -0.18353 0.3712 
find -0.59875 0.40756 0.78607 0.45269 -0.46091 -0.14572 -0.26606 -0.15886 -0.34512 0.21057 
alliance -0.50562 0.42357 0.65165 0.55693 -0.59164 -0.090762 -0.18852 -0.38195 -0.35618 0.35653 
professionals -0.50835 0.61575 0.78435 0.54417 -0.5603 -0.21357 -0.18218 -0.18529 -0.16792 0.26734 
scientists -0.55039 0.41242 0.74953 0.37678 -0.5579 -0.047228 -0.24702 -0.34257 -0.1704 0.28244 
claims -0.43979 0.65826 0.76191 0.49797 -0.564 -0.21235 -0.34975 -0.23389 -0.20178 0.44451 
smaller -0.5836 0.51796 0.73327 0.3425 -0.46365 -0.2726 -0.32791 -0.24561 -0.29245 0.32918 
affected -0.45482 0.66379 0.79795 0.41314 -0.51198 -0.046936 -0.3729 -0.28568 -0.29264 0.34524 
remain -0.55371 0.45061 0.81833 0.51441 -0.55902 -0.023955 -0.20178 -0.28204 -0.31443 0.34158 
defend -0.5424 0.54629 0.89927 0.40465 -0.39328 -0.1674 -0.20695 -0.24897 -0.35607 0.35883 
north -0.57195 0.54739 0.8868 0.38565 -0.49492 -0.18381 -0.27816 -0.18997 -0.20466 0.344 
savants -0.48037 0.601 0.72878 0.42866 -0.59156 -0.26128 -0.19756 -0.17476 -0.2753 0.41073 
theoretical -0.59479 0.42598 0.73121 0.44962 -0.61072 -0.14622 -0.36786 -0.17543 -0.22015 0.34351 
name -0.39985 0.41951 0.82942 0.51486 -0.56171 -0.10072 -0.14394 -0.24862 -0.19066 0.2925 
clear -0.56032 0.50601 0.72474 0.4093 -0.52045 -0.12916 -0.14818 -0.24681 -0.21783 0.33189 
off -0.53687 0.43574 0.71137 0.41261 -0.54642 -0.16471 -0.33194 -0.20902 -0.16464 0.42049 
centre -0.61908 0.50851 0.66432 0.40995 -0.49824 -0.2024 -0.24291 -0.17288 -0.15411 0.30582 
answer -0.53237 0.53281 0.88602 0.44433 -0.37703 0.042296 -0.26176 -0.20963 -0.37392 0.40596 
towards -0.47898 0.50026 0.78215 0.60036 -0.68607 -0.091869 -0.26103 -0.20533 -0.26933 0.2861 
eye -0.48878 0.46964 0.77852 0.44447 -0.52911 -0.21733 -0.33203 -0.24055 -0.32245 0.38577 
began -0.47738 0.50157 0.71179 0.45097 -0.58019 -0.19735 -0.20571 -0.15015 -0.30487 0.28118 
music -0.53668 0.48461 0.63768 0.32417 -0.53737 -0.0771 -0.25033 -0.28007 -0.15372 0.40013 
carbon -0.50081 0.57245 0.77083 0.51232 -0.56296 -0.18162 -0.21262 -0.31625 -0.2009 0.21769 
eastern -0.59039 0.49391 0.77515 0.5039 -0.53757 -0.068092 -0.24455 -0.18269 -0.254 0.43268 
best -0.48294 0.46698 0.85164 0.49104 -0.46057 -0.10449 -0.252 -0.16564 -0.27305 0.36144 
think -0.56964 0.3433 0.71579 0.57274 -0.53067 -0.10406 -0.17742 -0.19944 -0.30232 0.33911 
thing -0.60945 0.39581 0.71473 0.51194 -0.57046 -0.13721 -0.20238 -0.33353 -0.31591 0.38301 
victory -0.53535 0.46596 0.69641 0.56593 -0.50064 -0.21393 -0.4053 -0.23732 -0.3061 0.5396 
too -0.6019 0.4252 0.82899 0.44033 -0.58275 -0.26335 -0.21879 -0.25465 -0.3092 0.45378 
lot -0.43142 0.44681 0.68209 0.46856 -0.49987 -0.11012 -0.38615 -0.27185 -0.33067 0.35412 
increases -0.3746 0.51042 0.79725 0.40706 -0.50461 -0.11778 -0.25737 -0.27734 -0.3258 0.36892 
my -0.48455 0.43846 0.88467 0.54006 -0.45838 -0.19753 -0.39374 -0.17552 -0.17506 0.51216 
policy -0.61964 0.3786 0.68787 0.49793 -0.63684 -0.11191 -0.32734 -0.1411 -0.18321 0.5577 
palace -0.48626 0.38576 0.73718 0.4647 -0.4117 -0.06504 -0.22512 -0.18552 -0.24884 0.20238 
each -0.51713 0.47135 0.64084 0.46781 -0.53374 -0.21753 -0.2504 -0.14693 -0.375 0.28032 
amongst -0.62196 0.43318 0.74435 0.54852 -0.5048 -0.052741 -0.17049 -0.29948 -0.28006 0.2364 
prominent -0.40402 0.43228 0.75558 0.46042 -0.52282 -0.053944 -0.28922 -0.12841 -0.31049 0.36653 
taking -0.42149 0.55664 0.65436 0.45472 -0.44637 -0.12029 -0.27963 -0.11722 -0.29821 0.38155 
hierarchy -0.50107 0.46167 0.76027 0.54246 -0.56834 -0.13091 -0.25873 -0.29659 -0.32394 0.2901 
sunlight -0.57978 0.4567 0.85483 0.44547 -0.4741 -0.18435 -0.32217 -0.30053 -0.24485 0.2855 
did -0.4154 0.37101 0.79584 0.43769 -0.69458 -0.040675 -0.18032 -0.26711 -0.17833 0.41163 
second -0.49033 0.4395 0.68047 0.39186 -0.60089 -0.17253 -0.3553 -0.17172 -0.26371 0.29845 
situation -0.39515 0.51246 0.67233 0.32948 -0.54732 -0.089349 -0.26841 -0.2257 -0.18337 0.31227 
domination -0.53285 0.57381 0.83848 0.41435 -0.46317 -0.10003 -0.16766 -0.19393 -0.16153 0.39476 
existed -0.46245 0.39402 0.69149 0.44763 -0.43685 -0.16494 -0.27379 -0.19536 -0.16382 0.33924 
criticised -0.52505 0.42337 0.71332 0.52295 -0.50194 -0.043315 -0.25695 -0.21948 -0.18294 0.48499 
fairbanks -0.50276 0.54101 0.56506 0.50215 -0.52973 -0.098927 -0.26103 -0.31937 -0.16502 0.30944 
h -0.40574 0.46758 0.85051 0.33192 -0.59568 0.0085351 -0.25808 -0.16653 -0.37518 0.33175 
having -0.59081 0.3756 0.74762 0.41464 -0.51258 -0.12807 -0.32592 -0.24427 -0.29614 0.23424 
extensively -0.60293 0.53531 0.61766 0.48167 -0.39954 -0.2173 -0.25788 -0.30036 -0.17644 0.27207 
whether -0.57337 0.53688 0.77629 0.33357 -0.51293 -0.074651 -0.17226 -0.23301 -0.30144 0.40748 
lead -0.40696 0.58464 0.65694 0.42475 -0.48325 -0.020617 -0.36732 -0.25443 -0.22656 0.38501 
field -0.55424 0.48539 0.70798 0.4486 -0.60209 -0.10853 -0.23025 -0.29215 -0.27917 0.28109 
learn -0.60013 0.54071 0.83454 0.53521 -0.40282 -0.11477 -0.28367 -0.25977 -0.32924 0.26761 
weather -0.52737 0.55895 0.70325 0.41536 -0.55516 -0.12574 -0.27325 -0.17176 -0.32877 0.40782 
societies -0.4161 0.52493 0.79675 0.55403 -0.36804 -0.066851 -0.26153 -0.18068 -0.33424 0.28194 
pierre -0.44181 0.48496 0.66396 0.3453 -0.7177 -0.12219 -0.32803 -0.24391 -0.28066 0.48923 
chinese -0.53613 0.4063 0.79716 0.44136 -0.56553 -0.091433 -0.27506 -0.24118 -0.29326 0.31185 
wasn -0.53945 0.37294 0.74015 0.55049 -0.5423 -0.13791 -0.33255 -0.26721 -0.32865 0.4339 
listed -0.38676 0.50978 0.65412 0.43778 -0.58456 -0.11164 -0.32643 -0.21941 -0.27762 0.34339 
above -0.47308 0.5172 0.82443 0.48801 -0.46855 -0.18195 -0.18406 -0.18289 -0.23184 0.35578 
pine -0.53777 0.59112 0.67172 0.45269 -0.50303 -0.075124 -0.33931 -0.19474 -0.26621 0.36592 
get -0.58628 0.51001 0.78908 0.39699 -0.49922 -0.058983 -0.22782 -0.30662 -0.17325 0.3017 
philosophies -0.44494 0.54903 0.82572 0.31776 -0.61175 -0.10989 -0.3652 -0.29212 -0.18105 0.21213 
anybody -0.59082 0.44289 0.90602 0.45904 -0.52991 -0.1426 -0.19092 -0.3721 -0.27171 0.30642 
albedos -0.43642 0.55438 0.82924 0.54903 -0.43314 -0.11236 -0.25232 -0.11531 -0.2122 0.41323 
am -0.58377 0.38975 0.87632 0.54082 -0.48273 -0.15334 -0.39639 -0.27523 -0.2167 0.43305 
website -0.35061 0.46725 0.74629 0.39007 -0.50244 -0.04678 -0.23134 -0.22087 -0.38905 0.4676 
murray -0.47718 0.52318 0.84244 0.54598 -0.5581 -0.1375 -0.16144 -0.29638 -0.38672 0.22314 
branches -0.53488 0.49613 0.77486 0.36818 -0.51632 -0.13251 -0.25111 -0.2935 -0.19001 0.30622 
stress -0.49225 0.43275 0.74874 0.29771 -0.59374 -0.22821 -0.29572 -0.18921 -0.22217 0.2803 
always -0.47843 0.48744 0.81323 0.50136 -0.40607 -0.18048 -0.34109 -0.25348 -0.12906 0.26768 
synthesis -0.46903 0.64693 0.79675 0.51859 -0.52982 -0.12046 -0.16795 -0.17746 -0.26397 0.39234 
entirely -0.63376 0.37032 0.88822 0.52275 -0.43843 -0.083754 -0.31171 -0.1608 -0.24719 0.39398 
dysfunction -0.47834 0.5944 0.81875 0.40298 -0.37039 -0.12522 -0.27806 -0.2252 -0.25826 0.41001 
integration -0.67147 0.52308 0.76962 0.35766 -0.57913 -0.18702 -0.25467 -0.15764 -0.33297 0.31127 
seeks -0.38025 0.47089 0.73152 0.43243 -0.54049 -0.13905 -0.1894 -0.29108 -0.2911 0.41741 
david -0.39775 0.41856 0.72062 0.48182 -0.57028 -0.1023 -0.25884 -0.28315 -0.099509 0.38582 
reflected -0.52673 0.43136 0.7064 0.34763 -0.47521 -0.13373 -0.26999 -0.31344 -0.21105 0.33805 
cleyre -0.64702 0.382 0.93596 0.43669 -0.65464 -0.33276 -0.23445 -0.2053 -0.29567 0.18718 
aide -0.44236 0.37148 0.79321 0.47403 -0.41415 -0.03635 -0.27719 -0.23228 -0.16208 0.34234 
variant -0.49937 0.58258 0.70482 0.44701 -0.66392 -0.16352 -0.35628 -0.18209 -0.27789 0.29776 
eco -0.54327 0.52651 0.62754 0.40953 -0.44897 -0.21949 -0.29547 -0.23161 -0.18473 0.43014 
capitalists -0.47731 0.54077 0.82112 0.47004 -0.62531 -0.10273 -0.26967 -0.36883 -0.30012 0.39407 
primitivism -0.42438 0.48336 0.75046 0.2722 -0.31138 -0.065025 -0.25697 -0.26418 -0.24866 0.40687 
consider -0.5289 0.49865 0.88869 0.39512 -0.47486 -0.21506 -0.31181 -0.34861 -0.30219 0.50824 
emotional -0.40456 0.51311 0.86656 0.36009 -0.48921 -0.3097 -0.18422 -0.3076 -0.32522 0.29355 
then -0.49968 0.49051 0.66536 0.49665 -0.5513 -0.16072 -0.29627 -0.23585 -0.35914 0.38675 
exhibit -0.51807 0.45199 0.75354 0.32302 -0.45118 -0.23136 -0.32217 -0.2177 -0.30409 0.40368 
germany -0.52527 0.45343 0.66901 0.55624 -0.43491 -0.067863 -0.29065 -0.33459 -0.12352 0.4995 
oppose -0.37675 0.42043 0.73636 0.54761 -0.51177 -0.14227 -0.29271 -0.32258 -0.32615 0.33811 
vision -0.48095 0.37513 0.69408 0.46979 -0.45745 -0.09362 -0.20695 -0.33095 -0.36099 0.32563 
lower -0.52616 0.52446 0.81019 0.4358 -0.41744 -0.24929 -0.24306 -0.20137 -0.19503 0.41857 
under -0.40691 0.37765 0.76436 0.42545 -0.53052 -0.091237 -0.29203 -0.36538 -0.25541 0.33924 
historical -0.57849 0.48873 0.78475 0.34327 -0.53275 -0.22183 -0.20649 -0.28366 -0.21498 0.41219 
nih -0.48068 0.41748 0.74038 0.47734 -0.61313 -0.086403 -0.36293 -0.33837 -0.22079 0.29448 
definitives -0.50468 0.46674 0.78409 0.47897 -0.51999 -0.20055 -0.28705 -0.39952 -0.33681 0.33276 
economy -0.52531 0.46741 0.73773 0.43453 -0.56717 -0.028691 -0.16035 -0.16469 -0.16591 0.41055 
garfield -0.59015 0.42743 0.75424 0.53081 -0.49937 -0.15431 -0.37941 -0.27625 -0.20777 0.40125 
clearinghouse -0.43635 0.54007 0.94471 0.3808 -0.50602 -0.14247 -0.13062 -0.34808 -0.30837 0.278 
act -0.47174 0.55145 0.74597 0.47038 -0.43304 -0.23386 -0.38005 -0.22489 -0.29465 0.35176 
feel -0.36062 0.42787 0.89548 0.51388 -0.46874 -0.04382 -0.35124 -0.23161 -0.33743 0.40674 
recognize -0.65288 0.43317 0.81564 0.45172 -0.5642 -0.084762 -0.1653 -0.27784 -0.16864 0.18358 
white -0.6204 0.57426 0.68535 0.53722 -0.55693 -0.061467 -0.2804 -0.21263 -0.32963 0.38763 
co -0.61747 0.35068 0.75907 0.3423 -0.50868 -0.16566 -0.27123 -0.28313 -0.18495 0.44147 
workshops -0.5957 0.31013 0.82427 0.43717 -0.33896 -0.088165 -0.20419 -0.343 -0.19633 0.43185 
nos -0.39502 0.61301 0.78258 0.55867 -0.53542 -0.20365 -0.26237 -0.41547 -0.30352 0.36484 
influential -0.39738 0.51506 0.67922 0.39847 -0.44485 -0.097601 -0.36018 -0.33046 -0.27089 0.36718 
land -0.60865 0.40006 0.8123 0.51245 -0.53154 -0.14491 -0.18593 -0.30764 -0.12127 0.26587 
alone -0.48678 0.41824 0.77553 0.51147 -0.48984 -0.094499 -0.25284 -0.31257 -0.22521 0.2953 
cdd -0.68348 0.55174 0.81789 0.50081 -0.42269 -0.13721 -0.24837 -0.3187 -0.40528 0.3109 
followers -0.38686 0.48686 0.67791 0.49363 -0.61051 -0.22666 -0.36974 -0.30154 -0.18825 0.2265 
begin -0.4666 0.39467 0.82254 0.46876 -0.47721 -0.1357 -0.15369 -0.17457 -0.37078 0.36508 
took -0.58072 0.424 0.7865 0.35189 -0.59283 -0.14761 -0.21194 -0.19432 -0.19164 0.29999 
works -0.44511 0.51121 0.79263 0.32734 -0.58747 -0.21338 -0.33579 -0.18812 -0.34401 0.29785 
anxiety -0.45689 0.38585 0.93388 0.41009 -0.54104 -0.24975 -0.23268 -0.19897 -0.40329 0.29109 
etc -0.45722 0.4751 0.76317 0.48997 -0.4892 -0.23655 -0.28712 -0.3326 -0.30341 0.3607 
ideology -0.52863 0.3967 0.75111 0.45803 -0.5585 -0.20836 -0.22964 -0.33103 -0.20531 0.2185 
attachment -0.49941 0.33862 0.79825 0.31302 -0.41869 -0.19493 -0.23074 -0.3343 -0.307 0.34161 
inability -0.4234 0.50439 0.76328 0.36677 -0.4117 -0.20772 -0.29388 -0.19703 -0.33101 0.39138 
tendencies -0.49108 0.4874 0.7154 0.42851 -0.47557 -0.054207 -0.15298 -0.16565 -0.27616 0.24936 
speaking -0.60554 0.34105 0.61438 0.51451 -0.56309 -0.1198 -0.31347 -0.19456 -0.37886 0.41584 
birth -0.59234 0.4479 0.72678 0.50104 -0.57257 -0.2312 -0.17849 -0.22558 -0.21412 0.28996 
old -0.6001 0.38143 0.7373 0.47558 -0.51335 -0.22977 -0.22535 -0.15812 -0.3239 0.36392 
expressions -0.41775 0.50215 0.83684 0.40201 -0.5189 -0.15801 -0.16133 -0.36498 -0.23421 0.33833 
currency -0.60205 0.61264 0.72081 0.46579 -0.5711 -0.12882 -0.19167 -0.19531 -0.33948 0.27696 
allows -0.66933 0.43362 0.89765 0.47735 -0.42666 -0.008087 -0.27172 -0.31282 -0.27546 0.29509 
gestures -0.49419 0.56303 0.7188 0.45963 -0.55374 -0.25962 -0.11312 -0.32072 -0.30972 0.31435 
helped -0.4773 0.54771 0.69456 0.34063 -0.59742 -0.026944 -0.16064 -0.15058 -0.35007 0.48523 
profit -0.4562 0.45567 0.76899 0.59098 -0.45083 -0.13858 -0.39385 -0.24516 -0.21498 0.31349 
held -0.63349 0.49618 0.74058 0.40439 -0.50857 -0.05817 -0.3101 -0.3559 -0.26326 0.38213 
turn -0.61389 0.4387 0.71529 0.43422 -0.49176 -0.20568 -0.24608 -0.26271 -0.30877 0.28494 
newman -0.44156 0.37195 0.76146 0.39757 -0.53581 -0.24381 -0.2336 -0.34836 -0.23545 0.36559 
feelings -0.42681 0.54599 0.74758 0.35683 -0.41495 -0.080977 -0.37915 -0.40495 -0.24739 0.47227 
visual -0.54613 0.59755 0.65835 0.41899 -0.46847 -0.11458 -0.43832 -0.29776 -0.19134 0.4153 
capital -0.5064 0.44638 0.76824 0.41047 -0.60576 -0.23203 -0.29233 -0.23887 -0.33442 0.3122 
anarchistic -0.50334 0.41484 0.77359 0.40581 -0.41607 -0.15705 -0.22427 -0.29595 -0.26018 0.38072 
resource -0.42322 0.57965 0.74273 0.52132 -0.59575 -0.18139 -0.17986 -0.34901 -0.36425 0.34339 
teachings -0.62638 0.43162 0.69073 0.39992 -0.49887 -0.045647 -0.29918 -0.35264 -0.25618 0.33111 
jesus -0.62994 0.40433 0.72105 0.39292 -0.57394 -0.10633 -0.20242 -0.42161 -0.25695 0.38366 
goods -0.42619 0.49954 0.78081 0.4998 -0.4843 -0.10333 -0.27687 -0.24604 -0.21589 0.28288 
shaikh -0.4937 0.61025 0.84356 0.34948 -0.6683 -0.038625 -0.26479 -0.17146 -0.28896 0.34317 
arabia -0.47278 0.44383 0.78377 0.37016 -0.56645 -0.01971 -0.32067 -0.20282 -0.27704 0.42109 
variety -0.52956 0.3505 0.89163 0.48328 -0.39696 -0.010665 -0.37737 -0.24003 -0.30755 0.38588 
families -0.57897 0.49473 0.67813 0.46565 -0.5351 -0.073997 -0.18975 -0.30526 -0.15864 0.42929 
chaos -0.52448 0.47557 0.78076 0.57318 -0.42522 -0.053472 -0.28656 -0.27595 -0.2151 0.4061 
restricted -0.41468 0.50903 0.96048 0.51031 -0.37409 -0.15202 -0.2803 -0.20295 -0.22483 0.44254 
truly -0.5141 0.3989 0.8262 0.34243 -0.50569 -0.16671 -0.31705 -0.21963 -0.28502 0.3048 
spoken -0.51498 0.34067 0.76116 0.3927 -0.59514 -0.18589 -0.33632 -0.31735 -0.16304 0.40547 
slight -0.53146 0.53028 0.86602 0.55776 -0.42384 -0.10843 -0.22137 -0.21962 -0.16999 0.42879 
strategy -0.45316 0.5812 0.75705 0.32746 -0.54649 -0.14947 -0.28901 -0.33808 -0.1539 0.31919 
conception -0.56564 0.42275 0.82382 0.47202 -0.45737 -0.12099 -0.38546 -0.21268 -0.20333 0.3249 
value -0.49417 0.50526 0.76732 0.57915 -0.54982 -0.24138 -0.25215 -0.25782 -0.13518 0.21764 
confederation -0.56532 0.48887 0.64776 0.52851 -0.57163 -0.11124 -0.3407 -0.20075 -0.2766 0.35457 
march -0.4431 0.50478 0.79209 0.36259 -0.50342 -0.16445 -0.22136 -0.29629 -0.34994 0.39188 
nahayan -0.5623 0.46314 0.86145 0.41745 -0.47677 -0.080471 -0.29801 -0.30384 -0.27806 0.25601 
herbert -0.53396 0.51288 0.81618 0.41792 -0.45676 -0.18516 -0.28623 -0.2271 -0.19766 0.25843 
freedom -0.44923 0.5082 0.8511 0.55423 -0.43771 -0.053341 -0.30629 -0.30905 -0.32954 0.2063 
strongly -0.4124 0.57392 0.76431 0.57662 -0.44421 -0.19594 -0.37183 -0.26728 -0.2424 0.18661 
rock -0.52769 0.56863 0.69253 0.48214 -0.59509 -0.12548 -0.31797 -0.21066 -0.24366 0.42792 
hans -0.37901 0.37414 0.69701 0.48784 -0.55787 -0.21273 -0.18111 -0.32174 -0.17612 0.31419 
ruling -0.56309 0.54674 0.65083 0.35204 -0.55091 -0.0011751 -0.22799 -0.18893 -0.21393 0.41942 
december -0.67533 0.47441 0.78617 0.39486 -0.46149 -0.039227 -0.22239 -0.3191 -0.32248 0.42105 
let -0.46417 0.40137 0.78814 0.39572 -0.60227 -0.14464 -0.13622 -0.31931 -0.25417 0.37875 
neurological -0.41572 0.51498 0.73029 0.47821 -0.57432 -0.22359 -0.19652 -0.19122 -0.33098 0.29193 
don -0.55179 0.29562 0.74061 0.36284 -0.57304 -0.031887 -0.31559 -0.37535 -0.35232 0.42033 
beneficial -0.63428 0.40778 0.77512 0.47687 -0.46847 -0.20433 -0.28913 -0.24758 -0.26295 0.40014 
instead -0.56015 0.38235 0.72074 0.3178 -0.45657 -0.15251 -0.20264 -0.35032 -0.30856 0.28021 
delay -0.50346 0.55314 0.81164 0.39011 -0.42589 -0.11004 -0.18857 -0.32833 -0.25556 0.25763 
party -0.52909 0.53301 0.65181 0.38196 -0.45848 -0.1275 -0.24806 -0.32892 -0.33244 0.43529 
becoming -0.61283 0.53064 0.66723 0.46647 -0.42307 -0.023709 -0.23596 -0.26063 -0.27048 0.43596 
w -0.66187 0.5586 0.70597 0.59743 -0.43951 -0.13824 -0.44873 -0.15794 -0.23857 0.40022 
real -0.58979 0.40979 0.79099 0.45853 -0.57635 -0.2371 -0.16157 -0.21197 -0.29892 0.28366 
characterised -0.62065 0.40702 0.8312 0.37375 -0.56336 -0.09092 -0.2082 -0.31883 -0.33883 0.45447 
august -0.47294 0.50066 0.82317 0.36337 -0.49413 -0.16719 -0.28379 -0.25314 -0.28657 0.22561 
organized -0.50533 0.48419 0.71731 0.45533 -0.46025 -0.15813 -0.23785 -0.22978 -0.31032 0.29026 
widely -0.5583 0.48201 0.62435 0.5034 -0.55384 -0.1559 -0.23179 -0.15779 -0.34249 0.24234 
employment -0.5913 0.43027 0.85326 0.42069 -0.39554 -0.076288 -0.20187 -0.37861 -0.20417 0.4026 
struggle -0.43741 0.48052 0.66518 0.41013 -0.58437 -0.0086712 -0.28941 -0.32376 -0.34885 0.41038 
britain -0.5095 0.48335 0.70202 0.45082 -0.37208 -0.2355 -0.1747 -0.16624 -0.23103 0.20476 
terrorism -0.46239 0.54767 0.73708 0.4101 -0.49959 -0.13494 -0.14474 -0.32386 -0.27446 0.50278 
introduced -0.59496 0.40734 0.68868 0.53946 -0.48253 -0.035704 -0.33688 -0.18495 -0.28246 0.32221 
gulf -0.56007 0.60312 0.74036 0.42315 -0.57078 -0.15159 -0.21374 -0.18504 -0.28971 0.23592 
events -0.57373 0.39895 0.70788 0.45175 -0.53685 -0.22255 -0.26048 -0.1543 -0.27919 0.27774 
meaning -0.47827 0.5132 0.70427 0.31477 -0.49311 -0.06905 -0.21312 -0.32351 -0.20203 0.38909 
actions -0.44026 0.4642 0.70901 0.31451 -0.38964 -0.18307 -0.21298 -0.35601 -0.13919 0.46898 
advocates -0.39062 0.5586 0.73976 0.50188 -0.49029 -0.28898 -0.23418 -0.44807 -0.28574 0.30216 
coast -0.55828 0.46826 0.76769 0.42799 -0.43362 -0.2137 -0.16774 -0.24014 -0.33458 0.24769 
theories -0.43713 0.46219 0.66432 0.52122 -0.41554 -0.19059 -0.18852 -0.3317 -0.16731 0.43295 
regarded -0.49124 0.46001 0.57666 0.43476 -0.38786 -0.1305 -0.37749 -0.28106 -0.2335 0.35054 
family -0.47686 0.40629 0.76866 0.52243 -0.34258 -0.12102 -0.31053 -0.32138 -0.19305 0.42997 
almost -0.36576 0.37528 0.75811 0.47495 -0.53841 -0.19789 -0.38128 -0.13373 -0.2262 0.24822 
page -0.51696 0.638 0.76182 0.44513 -0.54675 -0.05523 -0.26675 -0.38836 -0.2148 0.2916 
nervous -0.45111 0.50154 0.77121 0.50593 -0.51798 -0.17789 -0.15115 -0.26042 -0.34299 0.40518 
rain -0.58251 0.5177 0.56895 0.34901 -0.61397 -0.24031 -0.37338 -0.19209 -0.23015 0.43162 
converse -0.46138 0.42198 0.79742 0.3782 -0.53461 -0.16436 -0.2264 -0.23088 -0.20789 0.34759 
geeks -0.59298 0.46823 0.81923 0.53518 -0.51911 -0.18673 -0.29505 -0.36149 -0.32103 0.27565 
relating -0.4173 0.47414 0.81024 0.46945 -0.6179 -0.090063 -0.17342 -0.30473 -0.19171 0.23357 
propaganda -0.3752 0.54706 0.8111 0.33452 -0.52165 -0.14777 -0.34942 -0.36923 -0.19015 0.19402 
mother -0.59882 0.4422 0.67762 0.56546 -0.50646 -0.21435 -0.31242 -0.19387 -0.17099 0.32502 
among -0.55815 0.4898 0.63033 0.50276 -0.44915 -0.17628 -0.27795 -0.22687 -0.3185 0.357 
consistent -0.51139 0.53954 0.78486 0.38533 -0.55569 -0.20191 -0.40879 -0.14055 -0.27265 0.25939 
strike -0.50685 0.53907 0.67658 0.43809 -0.55854 -0.19238 -0.15492 -0.26024 -0.29849 0.28999 
whole -0.49631 0.4614 0.79684 0.46671 -0.45186 -0.18784 -0.28696 -0.35254 -0.20146 0.49403 
preoccupation -0.55575 0.47421 0.87133 0.39169 -0.39975 -0.19415 -0.29731 -0.26524 -0.2459 0.29197 
classification -0.60501 0.40772 0.87107 0.48679 -0.48912 -0.13281 -0.22363 -0.2859 -0.1725 0.3238 
toxin -0.45574 0.56111 0.63735 0.45529 -0.57806 -0.061126 -0.25294 -0.17943 -0.29854 0.3473 
seeking -0.47847 0.49166 0.80881 0.46341 -0.43071 -0.17525 -0.2328 -0.31661 -0.24106 0.40988 
controversies -0.44589 0.59063 0.80143 0.49561 -0.5231 -0.042862 -0.22504 -0.18705 -0.35555 0.31078 
included -0.49009 0.4556 0.72698 0.49905 -0.64041 -0.061826 -0.22241 -0.24996 -0.26217 0.32974 
experience -0.44821 0.50827 0.92334 0.33765 -0.45213 -0.047645 -0.21356 -0.35097 -0.28003 0.40908 
place -0.40262 0.48992 0.65255 0.51183 -0.44069 -0.036433 -0.39466 -0.24711 -0.34977 0.36654 
pearl -0.50872 0.37964 0.62285 0.43391 -0.45854 -0.18772 -0.22029 -0.20996 -0.31661 0.4134 
joined -0.55019 0.47734 0.66676 0.46486 -0.55504 -0.20902 -0.18553 -0.31699 -0.38359 0.28667 
persons -0.52719 0.49837 0.78007 0.48995 -0.44786 -0.03931 -0.32388 -0.27003 -0.20473 0.28952 
occur -0.52043 0.61865 0.72251 0.36557 -0.58361 -0.038556 -0.31649 -0.096053 -0.1505 0.4264 
hours -0.39346 0.32621 0.72434 0.55039 -0.40729 -0.1556 -0.25682 -0.25065 -0.19454 0.30122 
sense -0.48591 0.47661 0.71516 0.35464 -0.49802 -0.27299 -0.34229 -0.22891 -0.27478 0.43264 
activities -0.46174 0.59739 0.74295 0.36102 -0.56932 -0.13037 -0.28183 -0.29431 -0.13608 0.39897 
accept -0.48934 0.5342 0.75459 0.43734 -0.57108 -0.021488 -0.36989 -0.19979 -0.28771 0.31971 
unity -0.49515 0.48928 0.73586 0.34971 -0.54534 -0.0976 -0.23554 -0.31844 -0.31627 0.3102 
seen -0.60465 0.43252 0.73772 0.50377 -0.55959 -0.19579 -0.17231 -0.28983 -0.37313 0.36497 
symbolic -0.57316 0.46675 0.94087 0.32198 -0.43209 -0.21293 -0.33755 -0.266 -0.37554 0.26233 
influenced -0.49869 0.34714 0.71161 0.43312 -0.56031 -0.073469 -0.28937 -0.35639 -0.29676 0.24373 
imaginative -0.615 0.36907 0.85526 0.34273 -0.37332 -0.18952 -0.38798 -0.20675 -0.26079 0.36261 
cited -0.54678 0.58668 0.67006 0.45216 -0.55479 -0.074621 -0.25959 -0.24934 -0.17601 0.29395 
incidence -0.43598 0.52798 0.75285 0.43292 -0.5487 -0.13971 -0.33315 -0.23104 -0.328 0.44145 
perhaps -0.60604 0.52503 0.67482 0.39645 -0.53149 -0.11807 -0.1998 -0.24834 -0.1829 0.2917 
key -0.37596 0.4222 0.83323 0.44374 -0.5158 -0.064535 -0.31265 -0.29983 -0.16478 0.40167 
disease -0.52348 0.58843 0.71153 0.53651 -0.52091 -0.17482 -0.30164 -0.18362 -0.33173 0.29859 
actually -0.48434 0.55886 0.98231 0.41095 -0.57299 -0.1443 -0.348 -0.3249 -0.28153 0.3469 
fully -0.62379 0.55974 0.85494 0.43101 -0.29884 -0.1097 -0.18427 -0.25372 -0.24983 0.23425 
successful -0.62456 0.52435 0.88211 0.38361 -0.64318 -0.09004 -0.25724 -0.166 -0.20702 0.18409 
sultan -0.49379 0.59572 0.82038 0.41508 -0.50858 -0.1017 -0.19338 -0.33746 -0.20673 0.37449 
needs -0.50042 0.52064 0.79752 0.49451 -0.48111 -0.040516 -0.28693 -0.15144 -0.2235 0.302 
onset -0.52627 0.43765 0.98008 0.43641 -0.42849 -0.12812 -0.41272 -0.1527 -0.21417 0.40988 
politics -0.40286 0.53286 0.86644 0.44664 -0.46844 -0.21788 -0.26734 -0.20824 -0.20762 0.39897 
characteristics -0.54662 0.65181 0.80827 0.44213 -0.65038 -0.1694 -0.20206 -0.31372 -0.30489 0.34065 
marxists -0.56835 0.6383 0.70457 0.44934 -0.56502 -0.0070409 -0.20312 -0.2225 -0.15151 0.24987 
unlike -0.43242 0.4811 0.70755 0.53346 -0.47873 -0.22649 -0.30333 -0.24909 -0.18995 0.38628 
times -0.57234 0.56229 0.75706 0.51575 -0.4174 -0.15992 -0.21025 -0.22389 -0.28008 0.24832 
particles -0.43773 0.57132 0.74701 0.45898 -0.63077 -0.23415 -0.32929 -0.22704 -0.27025 0.39502 
middle -0.53309 0.40263 0.70273 0.42349 -0.54567 -0.17631 -0.3435 -0.28135 -0.16462 0.46485 
socialism -0.48536 0.51823 0.71982 0.38951 -0.62652 -0.12039 -0.23563 -0.28535 -0.25581 0.36516 
peter -0.49745 0.63348 0.81555 0.47771 -0.6152 -0.29766 -0.44225 -0.2537 -0.24876 0.24854 
mainstream -0.62678 0.50448 0.68352 0.4125 -0.45314 -0.0011605 -0.28153 -0.35386 -0.23186 0.40123 
manifest -0.57758 0.54187 0.72521 0.31172 -0.42254 -0.079803 -0.44492 -0.13693 -0.29272 0.40147 
fought -0.54551 0.50633 0.6381 0.48769 -0.43556 -0.037651 -0.21006 -0.33637 -0.28304 0.3444 
phrase -0.45166 0.50534 0.83243 0.51838 -0.5428 -0.018329 -0.1745 -0.32622 -0.19531 0.31414 
someone -0.47686 0.30071 0.71275 0.48131 -0.43824 -0.11113 -0.32981 -0.2906 -0.29052 0.3202 
rule -0.70852 0.42367 0.80659 0.43118 -0.47662 -0.12219 -0.35202 -0.35528 -0.33888 0.25178 
addition -0.60616 0.55814 0.722 0.32966 -0.57621 -0.18722 -0.3395 -0.23845 -0.31433 0.21907 
education -0.56235 0.55281 0.74199 0.4454 -0.46372 -0.16363 -0.26715 -0.32433 -0.31473 0.25836 
currently -0.46814 0.31299 0.6817 0.44331 -0.53102 -0.17121 -0.27271 -0.27677 -0.25704 0.31902 
across -0.4478 0.40157 0.64853 0.39128 -0.41214 -0.2388 -0.27804 -0.19151 -0.34417 0.43243 
unusually -0.39619 0.38258 0.80823 0.39475 -0.50796 -0.1756 -0.28094 -0.11483 -0.21881 0.20881 
absence -0.56865 0.46251 0.72599 0.41174 -0.44079 -0.078934 -0.21293 -0.16894 -0.17946 0.35559 
paper -0.44741 0.31438 0.73513 0.4267 -0.52876 -0.14493 -0.33478 -0.28533 -0.3397 0.3934 
originated -0.4032 0.24056 0.67063 0.30739 -0.40827 -0.11423 -0.23042 -0.18878 -0.1776 0.32167 
impossible -0.34775 0.4098 0.65975 0.40374 -0.45612 -0.094998 -0.15468 -0.15906 -0.30207 0.28934 
twentieth -0.52872 0.52495 0.63217 0.45597 -0.50972 -0.12338 -0.33134 -0.21672 -0.27518 0.30757 
magazine -0.40249 0.42963 0.72807 0.35147 -0.33767 -0.031823 -0.21898 -0.19392 -0.21197 0.31439 
desire -0.40792 0.46209 0.71666 0.45314 -0.49053 -0.26213 -0.27822 -0.26425 -0.1838 0.17632 
unknown -0.43426 0.37237 0.80483 0.49137 -0.4272 -0.093264 -0.31052 -0.28116 -0.33842 0.32841 
countries -0.52794 0.43287 0.64264 0.49326 -0.52633 -0.0038884 -0.16757 -0.23465 -0.30208 0.41844 
giving -0.46415 0.39491 0.70642 0.49786 -0.38635 -0.2011 -0.15912 -0.28629 -0.30013 0.44813 
triggers -0.46787 0.52289 0.60962 0.33059 -0.47827 -0.21917 -0.17784 -0.14563 -0.21081 0.37405 
calming -0.48022 0.47028 0.68363 0.50985 -0.45592 0.0035984 -0.1257 -0.2526 -0.27165 0.28995 
focuses -0.41816 0.45243 0.64428 0.46583 -0.56609 -0.099004 -0.31104 -0.16296 -0.1842 0.36694 
specifically -0.62939 0.43129 0.80828 0.44356 -0.53333 -0.12787 -0.30589 -0.27641 -0.25845 0.36061 
seems -0.37734 0.4788 0.61999 0.40131 -0.37259 -0.13932 -0.29663 -0.13728 -0.21543 0.36272 
magnitude -0.41858 0.53635 0.81081 0.48284 -0.41318 -0.13455 -0.19892 -0.2395 -0.23345 0.37203 
austrian -0.36625 0.42681 0.76345 0.47123 -0.40753 -0.10688 -0.1529 -0.13875 -0.19126 0.29477 
thinkers -0.50623 0.34864 0.74209 0.4174 -0.44915 -0.15183 -0.19812 -0.30839 -0.22535 0.24893 
unable -0.42527 0.34596 0.64166 0.46503 -0.37839 -0.0721 -0.31464 -0.33419 -0.25186 0.36744 
unqualified -0.40248 0.53056 0.78801 0.36654 -0.5803 -0.20347 -0.36248 -0.22312 -0.34943 0.32285 
u -0.38983 0.43957 0.69789 0.45582 -0.37995 -0.044014 -0.15318 -0.22589 -0.25533 0.35716 
routine -0.50102 0.43596 0.76669 0.45664 -0.47267 -0.18233 -0.16166 -0.2531 -0.23665 0.3269 
points -0.38795 0.38051 0.71163 0.48142 -0.43031 -0.029707 -0.20631 -0.19323 -0.21432 0.30263 
former -0.35502 0.45515 0.55548 0.50273 -0.39378 -0.1742 -0.32841 -0.22864 -0.19865 0.35204 
predominantly -0.37148 0.37331 0.76686 0.44092 -0.52196 -0.18099 -0.12545 -0.24699 -0.22734 0.41314 
refer -0.5432 0.44664 0.72392 0.46563 -0.66394 -0.26236 -0.32367 -0.29611 -0.17384 0.28812 
monologue -0.45369 0.44833 0.79519 0.41069 -0.48587 -0.13175 -0.25524 -0.24841 -0.30051 0.38799 
classified -0.40431 0.45376 0.70703 0.50356 -0.43671 -0.079118 -0.21315 -0.19668 -0.17564 0.35647 
tradition -0.4829 0.34356 0.7845 0.50522 -0.50034 -0.2334 -0.29541 -0.35159 -0.15436 0.28496 
wide -0.50514 0.37393 0.7814 0.39101 -0.51545 -0.022187 -0.2995 -0.35222 -0.26842 0.37267 
angle -0.46389 0.40908 0.65489 0.47174 -0.54626 -0.055382 -0.34275 -0.18753 -0.37245 0.31669 
saul -0.40257 0.3295 0.78829 0.35767 -0.44807 -0.17073 -0.20187 -0.14861 -0.24383 0.26137 
postanarchism -0.36855 0.42694 0.75062 0.46178 -0.46233 -0.062291 -0.26308 -0.15041 -0.30137 0.37699 
poor -0.52109 0.49868 0.65802 0.41994 -0.4806 -0.016812 -0.16546 -0.29348 -0.28685 0.29348 
articles -0.40719 0.55292 0.66699 0.38326 -0.48929 -0.16938 -0.28012 -0.3153 -0.2869 0.40068 
completely -0.48057 0.47784 0.87176 0.49134 -0.56842 -0.088331 -0.24482 -0.28791 -0.24464 0.43409 
reasons -0.36957 0.46939 0.74706 0.45662 -0.38337 -0.10599 -0.24359 -0.27167 -0.33675 0.26376 
forums -0.47833 0.49074 0.79018 0.45417 -0.51752 -0.1784 -0.18737 -0.18165 -0.30279 0.39037 
suggested -0.43337 0.28744 0.6667 0.3662 -0.40273 -0.10888 -0.12979 -0.24548 -0.27342 0.30895 
sounds -0.44348 0.44667 0.64505 0.29108 -0.4117 -0.21145 -0.22923 -0.12797 -0.23263 0.25837 
includes -0.59372 0.49854 0.82796 0.407 -0.4765 -0.23221 -0.32735 -0.29773 -0.35508 0.2997 
song -0.3581 0.47304 0.75771 0.38472 -0.4843 -0.078505 -0.30604 -0.18622 -0.18376 0.34783 
sing -0.41887 0.51674 0.7048 0.36647 -0.4005 -0.17417 -0.37656 -0.15961 -0.26541 0.3523 
infoshop -0.38093 0.33757 0.67704 0.4352 -0.55021 -0.22581 -0.17431 -0.21316 -0.30204 0.25712 
intentions -0.61054 0.58098 0.70961 0.40513 -0.41796 -0.026171 -0.33757 -0.24816 -0.27505 0.3275 
archives -0.56491 0.49004 0.65534 0.38797 -0.5337 -0.094132 -0.33504 -0.23211 -0.23783 0.20674 
patients -0.43753 0.39666 0.60279 0.39667 -0.57659 -0.093319 -0.10592 -0.21303 -0.22961 0.24525 
adult -0.54363 0.47257 0.78636 0.37014 -0.45461 -0.16441 -0.31616 -0.13483 -0.20417 0.33325 
blogs -0.44183 0.51888 0.6847 0.52896 -0.51596 -0.11801 -0.17155 -0.30598 -0.22047 0.36067 
carry -0.53776 0.35809 0.78803 0.36361 -0.36569 -0.053807 -0.2039 -0.15131 -0.3357 0.33374 
beliefs -0.50339 0.48018 0.651 0.48211 -0.48535 -0.21996 -0.26967 -0.14801 -0.14735 0.31714 
useful -0.48572 0.36172 0.70846 0.30471 -0.40257 -0.098112 -0.37413 -0.19765 -0.15292 0.29805 
psychiatric -0.46931 0.44258 0.73325 0.49139 -0.61689 -0.10903 -0.26292 -0.34873 -0.32304 0.34226 
verbal -0.52736 0.38966 0.69808 0.47195 -0.53243 -0.019863 -0.14654 -0.10749 -0.29418 0.39564 
communicating -0.43347 0.4908 0.70989 0.40674 -0.44829 -0.062013 -0.29097 -0.1101 -0.31997 0.27396 
increased -0.42883 0.4597 0.6771 0.44108 -0.54964 -0.11176 -0.26344 -0.19996 -0.23954 0.3946 
ratio -0.54794 0.45262 0.63887 0.26194 -0.47305 -0.10344 -0.24656 -0.34791 -0.29572 0.22665 
levels -0.48051 0.55674 0.71061 0.32802 -0.60639 -0.064524 -0.22437 -0.31046 -0.16528 0.30581 
regulate -0.47152 0.56744 0.67951 0.50913 -0.5735 -0.11433 -0.25074 -0.2734 -0.31228 0.24166 
perform -0.56756 0.45029 0.75213 0.56224 -0.42699 -0.0849 -0.29566 -0.22533 -0.25817 0.35891 
guide -0.56579 0.44109 0.78104 0.38797 -0.58807 -0.14569 -0.39983 -0.29638 -0.33982 0.31106 
pre -0.40987 0.53638 0.66855 0.53039 -0.42397 -0.24712 -0.25534 -0.27996 -0.38625 0.40571 
sign -0.44966 0.40968 0.71729 0.506 -0.4587 -0.09854 -0.23252 -0.16474 -0.32909 0.31532 
necessarily -0.54068 0.49763 0.69116 0.58614 -0.5355 -0.10044 -0.14828 -0.17549 -0.2955 0.32335 
develops -0.52816 0.36044 0.70379 0.47323 -0.49531 -0.15276 -0.27074 -0.20338 -0.32531 0.36724 
websites -0.39463 0.48163 0.73894 0.3342 -0.42878 -0.11098 -0.24678 -0.11693 -0.30452 0.23073 
motor -0.39252 0.3726 0.84076 0.46384 -0.55566 -0.029509 -0.16041 -0.15183 -0.3273 0.32852 
already -0.52395 0.46524 0.67791 0.44502 -0.50876 -0.0081392 -0.25612 -0.29135 -0.29951 0.37595 
companionship -0.54268 0.40859 0.81947 0.43317 -0.36732 -0.15235 -0.23555 -0.2847 -0.22916 0.26996 
absolute -0.44545 0.33135 0.61363 0.25485 -0.41029 -0.22497 -0.18395 -0.23068 -0.30637 0.28103 
stay -0.51979 0.34503 0.74834 0.45728 -0.42622 -0.12665 -0.33845 -0.32171 -0.27566 0.24046 
takes -0.40773 0.43372 0.70502 0.43585 -0.45773 -0.11957 -0.16517 -0.27351 -0.18384 0.34557 
quiz -0.50506 0.4795 0.77097 0.47446 -0.59925 -0.18523 -0.29616 -0.17495 -0.34319 0.36383 
importance -0.52234 0.52876 0.72394 0.38658 -0.4728 -0.092607 -0.24969 -0.16383 -0.26662 0.29335 
proportion -0.46878 0.42443 0.84385 0.37976 -0.50976 -0.11045 -0.23769 -0.21354 -0.18924 0.28598 
series -0.50076 0.43553 0.86129 0.43249 -0.54351 -0.2093 -0.25656 -0.2498 -0.23907 0.27291 
quotient -0.37014 0.54433 0.6884 0.5309 -0.57514 -0.16911 -0.30415 -0.29528 -0.42969 0.25003 
measure -0.44544 0.52346 0.71456 0.48283 -0.54129 -0.16541 -0.26238 -0.23991 -0.31514 0.33323 
refuse -0.4931 0.4181 0.5573 0.42552 -0.47472 -0.21089 -0.18801 -0.21201 -0.20372 0.16998 
deep -0.43997 0.53636 0.69822 0.42247 -0.53414 -0.18241 -0.30386 -0.21624 -0.28544 0.42403 
routines -0.52139 0.43051 0.74644 0.49226 -0.59378 -0.073279 -0.16533 -0.19745 -0.21212 0.31867 
definition -0.42755 0.49915 0.78026 0.35553 -0.52463 -0.035333 -0.13034 -0.16064 -0.23838 0.29763 
therapy -0.60247 0.46528 0.71889 0.41301 -0.53037 -0.089933 -0.27868 -0.24204 -0.29261 0.3969 
environments -0.36961 0.44198 0.80328 0.47043 -0.47277 -0.1854 -0.14427 -0.30853 -0.14818 0.25126 
intense -0.52495 0.38578 0.87943 0.34658 -0.42873 -0.13567 -0.31421 -0.21396 -0.16458 0.31426 
climatology -0.43385 0.54919 0.76676 0.48902 -0.48184 -0.11189 -0.3005 -0.23681 -0.28594 0.3096 
doing -0.56878 0.53848 0.73943 0.45574 -0.40542 -0.051425 -0.16796 -0.31413 -0.28508 0.28671 
astronomy -0.48074 0.55731 0.65534 0.40541 -0.42243 -0.19751 -0.36857 -0.17751 -0.2232 0.28546 
numbers -0.47129 0.46764 0.69756 0.41189 -0.5041 -0.12776 -0.23334 -0.22543 -0.34943 0.27362 
hearing -0.47729 0.42519 0.54003 0.38076 -0.42725 -0.13265 -0.15354 -0.31521 -0.27729 0.24885 
persistent -0.52543 0.44586 0.84806 0.44668 -0.42285 -0.08589 -0.38418 -0.2505 -0.18079 0.40006 
psychiatrist -0.35134 0.32594 0.67146 0.37724 -0.53131 -0.17076 -0.36781 -0.26572 -0.17266 0.41026 
